digraph Tree {
node [shape=box, style="filled, rounded", color="black", fontname="helvetica"] ;
edge [fontname="helvetica"] ;
0 [label="C1 <= -0.5\ngini = 0.495\nsamples = 54045\nvalue = [5133, 13252, 35660]", fillcolor="#ba92f1"] ;
1 [label=" C19 <= 0.5\ngini = 0.57\nsamples = 17675\nvalue = [1932, 6049, 9694]", fillcolor="#d7c1f7"] ;
0 -> 1 [labeldistance=2.5, labelangle=45, headlabel="True"] ;
2 [label=" C14 <= 0.5\ngini = 0.53\nsamples = 12458\nvalue = [1366, 3361, 7731]", fillcolor="#c2a0f3"] ;
1 -> 2 ;
3 [label=" C2 <= 0.5\ngini = 0.491\nsamples = 9727\nvalue = [1073, 2144, 6510]", fillcolor="#b68df0"] ;
2 -> 3 ;
4 [label=" C37 <= 0.5\ngini = 0.552\nsamples = 6034\nvalue = [730, 1730, 3574]", fillcolor="#c9aaf4"] ;
3 -> 4 ;
5 [label=" C21 <= 0.5\ngini = 0.584\nsamples = 3609\nvalue = [411, 1333, 1865]", fillcolor="#e2d1f9"] ;
4 -> 5 ;
6 [label=" C15 <= -0.5\ngini = 0.577\nsamples = 3327\nvalue = [395, 1129, 1803]", fillcolor="#d8c2f7"] ;
5 -> 6 ;
7 [label=" C34 <= 0.5\ngini = 0.076\nsamples = 102\nvalue = [3, 1, 98]", fillcolor="#8641e6"] ;
6 -> 7 ;
8 [label=" C8 <= -0.5\ngini = 0.058\nsamples = 101\nvalue = [3, 0, 98]", fillcolor="#853fe6"] ;
7 -> 8 ;
9 [label=" C16 <= 0.5\ngini = 0.444\nsamples = 3\nvalue = [1, 0, 2]", fillcolor="#c09cf2"] ;
8 -> 9 ;
10 [label="gini = 0.0\nsamples = 2\nvalue = [0, 0, 2]", fillcolor="#8139e5"] ;
9 -> 10 ;
11 [label="gini = 0.0\nsamples = 1\nvalue = [1, 0, 0]", fillcolor="#e58139"] ;
9 -> 11 ;
12 [label=" C32 <= 0.5\ngini = 0.04\nsamples = 98\nvalue = [2, 0, 96]", fillcolor="#843de6"] ;
8 -> 12 ;
13 [label="gini = 0.0\nsamples = 82\nvalue = [0, 0, 82]", fillcolor="#8139e5"] ;
12 -> 13 ;
14 [label=" C20 <= 0.5\ngini = 0.219\nsamples = 16\nvalue = [2, 0, 14]", fillcolor="#9355e9"] ;
12 -> 14 ;
15 [label=" C19 <= -0.5\ngini = 0.124\nsamples = 15\nvalue = [1, 0, 14]", fillcolor="#8a47e7"] ;
14 -> 15 ;
16 [label=" C16 <= 0.5\ngini = 0.444\nsamples = 3\nvalue = [1, 0, 2]", fillcolor="#c09cf2"] ;
15 -> 16 ;
17 [label="gini = 0.0\nsamples = 2\nvalue = [0, 0, 2]", fillcolor="#8139e5"] ;
16 -> 17 ;
18 [label="gini = 0.0\nsamples = 1\nvalue = [1, 0, 0]", fillcolor="#e58139"] ;
16 -> 18 ;
19 [label="gini = 0.0\nsamples = 12\nvalue = [0, 0, 12]", fillcolor="#8139e5"] ;
15 -> 19 ;
20 [label="gini = 0.0\nsamples = 1\nvalue = [1, 0, 0]", fillcolor="#e58139"] ;
14 -> 20 ;
21 [label="gini = 0.0\nsamples = 1\nvalue = [0, 1, 0]", fillcolor="#39e581"] ;
7 -> 21 ;
22 [label=" C16 <= 0.5\ngini = 0.583\nsamples = 3225\nvalue = [392, 1128, 1705]", fillcolor="#dcc9f8"] ;
6 -> 22 ;
23 [label=" C19 <= -0.5\ngini = 0.58\nsamples = 3113\nvalue = [387, 1041, 1685]", fillcolor="#d8c1f7"] ;
22 -> 23 ;
24 [label=" C20 <= 0.5\ngini = 0.499\nsamples = 949\nvalue = [88, 240, 621]", fillcolor="#bb95f1"] ;
23 -> 24 ;
25 [label=" C7 <= 0.5\ngini = 0.358\nsamples = 556\nvalue = [48, 71, 437]", fillcolor="#a06aeb"] ;
24 -> 25 ;
26 [label=" C25 <= -0.5\ngini = 0.523\nsamples = 205\nvalue = [25, 50, 130]", fillcolor="#be99f2"] ;
25 -> 26 ;
27 [label=" C27 <= -0.5\ngini = 0.479\nsamples = 32\nvalue = [5, 22, 5]", fillcolor="#82efb0"] ;
26 -> 27 ;
28 [label=" C31 <= 0.5\ngini = 0.444\nsamples = 3\nvalue = [1, 0, 2]", fillcolor="#c09cf2"] ;
27 -> 28 ;
29 [label="gini = 0.0\nsamples = 1\nvalue = [1, 0, 0]", fillcolor="#e58139"] ;
28 -> 29 ;
30 [label="gini = 0.0\nsamples = 2\nvalue = [0, 0, 2]", fillcolor="#8139e5"] ;
28 -> 30 ;
31 [label=" C20 <= -0.5\ngini = 0.395\nsamples = 29\nvalue = [4, 22, 3]", fillcolor="#70eca4"] ;
27 -> 31 ;
32 [label=" C27 <= 0.5\ngini = 0.5\nsamples = 2\nvalue = [1, 0, 1]", fillcolor="#ffffff"] ;
31 -> 32 ;
33 [label="gini = 0.0\nsamples = 1\nvalue = [0, 0, 1]", fillcolor="#8139e5"] ;
32 -> 33 ;
34 [label="gini = 0.0\nsamples = 1\nvalue = [1, 0, 0]", fillcolor="#e58139"] ;
32 -> 34 ;
35 [label=" C4 <= 0.5\ngini = 0.318\nsamples = 27\nvalue = [3, 22, 2]", fillcolor="#62ea9b"] ;
31 -> 35 ;
36 [label=" C14 <= -0.5\ngini = 0.272\nsamples = 26\nvalue = [2, 22, 2]", fillcolor="#5ae996"] ;
35 -> 36 ;
37 [label=" C15 <= 0.5\ngini = 0.625\nsamples = 4\nvalue = [1, 2, 1]", fillcolor="#bdf6d5"] ;
36 -> 37 ;
38 [label="gini = 0.0\nsamples = 1\nvalue = [1, 0, 0]", fillcolor="#e58139"] ;
37 -> 38 ;
39 [label=" C32 <= 0.5\ngini = 0.444\nsamples = 3\nvalue = [0, 2, 1]", fillcolor="#9cf2c0"] ;
37 -> 39 ;
40 [label=" C27 <= 0.5\ngini = 0.5\nsamples = 2\nvalue = [0, 1, 1]", fillcolor="#ffffff"] ;
39 -> 40 ;
41 [label="gini = 0.0\nsamples = 1\nvalue = [0, 0, 1]", fillcolor="#8139e5"] ;
40 -> 41 ;
42 [label="gini = 0.0\nsamples = 1\nvalue = [0, 1, 0]", fillcolor="#39e581"] ;
40 -> 42 ;
43 [label="gini = 0.0\nsamples = 1\nvalue = [0, 1, 0]", fillcolor="#39e581"] ;
39 -> 43 ;
44 [label=" C34 <= 0.5\ngini = 0.169\nsamples = 22\nvalue = [1, 20, 1]", fillcolor="#4ce78d"] ;
36 -> 44 ;
45 [label=" C2 <= -0.5\ngini = 0.095\nsamples = 20\nvalue = [0, 19, 1]", fillcolor="#43e688"] ;
44 -> 45 ;
46 [label=" C26 <= 0.5\ngini = 0.444\nsamples = 3\nvalue = [0, 2, 1]", fillcolor="#9cf2c0"] ;
45 -> 46 ;
47 [label="gini = 0.0\nsamples = 1\nvalue = [0, 1, 0]", fillcolor="#39e581"] ;
46 -> 47 ;
48 [label=" C31 <= 0.5\ngini = 0.5\nsamples = 2\nvalue = [0, 1, 1]", fillcolor="#ffffff"] ;
46 -> 48 ;
49 [label="gini = 0.0\nsamples = 1\nvalue = [0, 1, 0]", fillcolor="#39e581"] ;
48 -> 49 ;
50 [label="gini = 0.0\nsamples = 1\nvalue = [0, 0, 1]", fillcolor="#8139e5"] ;
48 -> 50 ;
51 [label="gini = 0.0\nsamples = 17\nvalue = [0, 17, 0]", fillcolor="#39e581"] ;
45 -> 51 ;
52 [label=" C32 <= 0.0\ngini = 0.5\nsamples = 2\nvalue = [1, 1, 0]", fillcolor="#ffffff"] ;
44 -> 52 ;
53 [label="gini = 0.0\nsamples = 1\nvalue = [0, 1, 0]", fillcolor="#39e581"] ;
52 -> 53 ;
54 [label="gini = 0.0\nsamples = 1\nvalue = [1, 0, 0]", fillcolor="#e58139"] ;
52 -> 54 ;
55 [label="gini = 0.0\nsamples = 1\nvalue = [1, 0, 0]", fillcolor="#e58139"] ;
35 -> 55 ;
56 [label=" C32 <= 0.5\ngini = 0.438\nsamples = 173\nvalue = [20, 28, 125]", fillcolor="#ab7bee"] ;
26 -> 56 ;
57 [label=" C8 <= 0.5\ngini = 0.296\nsamples = 129\nvalue = [7, 15, 107]", fillcolor="#995fea"] ;
56 -> 57 ;
58 [label=" C5 <= -0.5\ngini = 0.204\nsamples = 99\nvalue = [5, 6, 88]", fillcolor="#9050e8"] ;
57 -> 58 ;
59 [label=" C6 <= 0.5\ngini = 0.49\nsamples = 7\nvalue = [3, 0, 4]", fillcolor="#e0cef8"] ;
58 -> 59 ;
60 [label=" C31 <= 0.5\ngini = 0.375\nsamples = 4\nvalue = [3, 0, 1]", fillcolor="#eeab7b"] ;
59 -> 60 ;
61 [label="gini = 0.0\nsamples = 2\nvalue = [2, 0, 0]", fillcolor="#e58139"] ;
60 -> 61 ;
62 [label=" C25 <= 0.5\ngini = 0.5\nsamples = 2\nvalue = [1, 0, 1]", fillcolor="#ffffff"] ;
60 -> 62 ;
63 [label="gini = 0.0\nsamples = 1\nvalue = [1, 0, 0]", fillcolor="#e58139"] ;
62 -> 63 ;
64 [label="gini = 0.0\nsamples = 1\nvalue = [0, 0, 1]", fillcolor="#8139e5"] ;
62 -> 64 ;
65 [label="gini = 0.0\nsamples = 3\nvalue = [0, 0, 3]", fillcolor="#8139e5"] ;
59 -> 65 ;
66 [label=" C38 <= -0.5\ngini = 0.162\nsamples = 92\nvalue = [2, 6, 84]", fillcolor="#8d4be7"] ;
58 -> 66 ;
67 [label="gini = 0.0\nsamples = 1\nvalue = [0, 1, 0]", fillcolor="#39e581"] ;
66 -> 67 ;
68 [label=" C27 <= 0.5\ngini = 0.144\nsamples = 91\nvalue = [2, 5, 84]", fillcolor="#8b49e7"] ;
66 -> 68 ;
69 [label=" C26 <= 0.5\ngini = 0.126\nsamples = 90\nvalue = [2, 4, 84]", fillcolor="#8a47e7"] ;
68 -> 69 ;
70 [label=" C15 <= 0.5\ngini = 0.032\nsamples = 62\nvalue = [1, 0, 61]", fillcolor="#833ce5"] ;
69 -> 70 ;
71 [label="gini = 0.0\nsamples = 49\nvalue = [0, 0, 49]", fillcolor="#8139e5"] ;
70 -> 71 ;
72 [label=" C38 <= 0.5\ngini = 0.142\nsamples = 13\nvalue = [1, 0, 12]", fillcolor="#8c49e7"] ;
70 -> 72 ;
73 [label="gini = 0.0\nsamples = 10\nvalue = [0, 0, 10]", fillcolor="#8139e5"] ;
72 -> 73 ;
74 [label=" C31 <= 0.5\ngini = 0.444\nsamples = 3\nvalue = [1, 0, 2]", fillcolor="#c09cf2"] ;
72 -> 74 ;
75 [label="gini = 0.0\nsamples = 2\nvalue = [0, 0, 2]", fillcolor="#8139e5"] ;
74 -> 75 ;
76 [label="gini = 0.0\nsamples = 1\nvalue = [1, 0, 0]", fillcolor="#e58139"] ;
74 -> 76 ;
77 [label=" C37 <= -0.5\ngini = 0.304\nsamples = 28\nvalue = [1, 4, 23]", fillcolor="#9b62ea"] ;
69 -> 77 ;
78 [label=" C7 <= -0.5\ngini = 0.5\nsamples = 4\nvalue = [0, 2, 2]", fillcolor="#ffffff"] ;
77 -> 78 ;
79 [label="gini = 0.0\nsamples = 1\nvalue = [0, 1, 0]", fillcolor="#39e581"] ;
78 -> 79 ;
80 [label=" C15 <= 0.5\ngini = 0.444\nsamples = 3\nvalue = [0, 1, 2]", fillcolor="#c09cf2"] ;
78 -> 80 ;
81 [label="gini = 0.0\nsamples = 2\nvalue = [0, 0, 2]", fillcolor="#8139e5"] ;
80 -> 81 ;
82 [label="gini = 0.0\nsamples = 1\nvalue = [0, 1, 0]", fillcolor="#39e581"] ;
80 -> 82 ;
83 [label=" C3 <= -0.5\ngini = 0.226\nsamples = 24\nvalue = [1, 2, 21]", fillcolor="#9254e9"] ;
77 -> 83 ;
84 [label=" C13 <= 0.5\ngini = 0.5\nsamples = 2\nvalue = [0, 1, 1]", fillcolor="#ffffff"] ;
83 -> 84 ;
85 [label="gini = 0.0\nsamples = 1\nvalue = [0, 0, 1]", fillcolor="#8139e5"] ;
84 -> 85 ;
86 [label="gini = 0.0\nsamples = 1\nvalue = [0, 1, 0]", fillcolor="#39e581"] ;
84 -> 86 ;
87 [label=" C28 <= 0.5\ngini = 0.169\nsamples = 22\nvalue = [1, 1, 20]", fillcolor="#8d4ce7"] ;
83 -> 87 ;
88 [label=" C15 <= 0.5\ngini = 0.1\nsamples = 19\nvalue = [1, 0, 18]", fillcolor="#8844e6"] ;
87 -> 88 ;
89 [label="gini = 0.0\nsamples = 15\nvalue = [0, 0, 15]", fillcolor="#8139e5"] ;
88 -> 89 ;
90 [label=" C2 <= -0.5\ngini = 0.375\nsamples = 4\nvalue = [1, 0, 3]", fillcolor="#ab7bee"] ;
88 -> 90 ;
91 [label="gini = 0.0\nsamples = 1\nvalue = [1, 0, 0]", fillcolor="#e58139"] ;
90 -> 91 ;
92 [label="gini = 0.0\nsamples = 3\nvalue = [0, 0, 3]", fillcolor="#8139e5"] ;
90 -> 92 ;
93 [label=" C2 <= -0.5\ngini = 0.444\nsamples = 3\nvalue = [0, 1, 2]", fillcolor="#c09cf2"] ;
87 -> 93 ;
94 [label="gini = 0.0\nsamples = 1\nvalue = [0, 1, 0]", fillcolor="#39e581"] ;
93 -> 94 ;
95 [label="gini = 0.0\nsamples = 2\nvalue = [0, 0, 2]", fillcolor="#8139e5"] ;
93 -> 95 ;
96 [label="gini = 0.0\nsamples = 1\nvalue = [0, 1, 0]", fillcolor="#39e581"] ;
68 -> 96 ;
97 [label=" C25 <= 0.5\ngini = 0.504\nsamples = 30\nvalue = [2, 9, 19]", fillcolor="#c3a1f3"] ;
57 -> 97 ;
98 [label=" C10 <= -0.5\ngini = 0.569\nsamples = 12\nvalue = [1, 6, 5]", fillcolor="#e3fbed"] ;
97 -> 98 ;
99 [label="gini = 0.0\nsamples = 2\nvalue = [0, 0, 2]", fillcolor="#8139e5"] ;
98 -> 99 ;
100 [label=" C10 <= 0.5\ngini = 0.54\nsamples = 10\nvalue = [1, 6, 3]", fillcolor="#aaf4c9"] ;
98 -> 100 ;
101 [label=" C38 <= 0.5\ngini = 0.444\nsamples = 9\nvalue = [0, 6, 3]", fillcolor="#9cf2c0"] ;
100 -> 101 ;
102 [label=" C20 <= -0.5\ngini = 0.375\nsamples = 8\nvalue = [0, 6, 2]", fillcolor="#7beeab"] ;
101 -> 102 ;
103 [label="gini = 0.0\nsamples = 1\nvalue = [0, 0, 1]", fillcolor="#8139e5"] ;
102 -> 103 ;
104 [label=" C33 <= 0.5\ngini = 0.245\nsamples = 7\nvalue = [0, 6, 1]", fillcolor="#5ae996"] ;
102 -> 104 ;
105 [label="gini = 0.0\nsamples = 6\nvalue = [0, 6, 0]", fillcolor="#39e581"] ;
104 -> 105 ;
106 [label="gini = 0.0\nsamples = 1\nvalue = [0, 0, 1]", fillcolor="#8139e5"] ;
104 -> 106 ;
107 [label="gini = 0.0\nsamples = 1\nvalue = [0, 0, 1]", fillcolor="#8139e5"] ;
101 -> 107 ;
108 [label="gini = 0.0\nsamples = 1\nvalue = [1, 0, 0]", fillcolor="#e58139"] ;
100 -> 108 ;
109 [label=" C37 <= -0.5\ngini = 0.364\nsamples = 18\nvalue = [1, 3, 14]", fillcolor="#a36eec"] ;
97 -> 109 ;
110 [label=" C31 <= 0.5\ngini = 0.625\nsamples = 4\nvalue = [1, 2, 1]", fillcolor="#bdf6d5"] ;
109 -> 110 ;
111 [label=" C38 <= 0.5\ngini = 0.444\nsamples = 3\nvalue = [0, 2, 1]", fillcolor="#9cf2c0"] ;
110 -> 111 ;
112 [label="gini = 0.0\nsamples = 2\nvalue = [0, 2, 0]", fillcolor="#39e581"] ;
111 -> 112 ;
113 [label="gini = 0.0\nsamples = 1\nvalue = [0, 0, 1]", fillcolor="#8139e5"] ;
111 -> 113 ;
114 [label="gini = 0.0\nsamples = 1\nvalue = [1, 0, 0]", fillcolor="#e58139"] ;
110 -> 114 ;
115 [label=" C31 <= -0.5\ngini = 0.133\nsamples = 14\nvalue = [0, 1, 13]", fillcolor="#8b48e7"] ;
109 -> 115 ;
116 [label="gini = 0.0\nsamples = 1\nvalue = [0, 1, 0]", fillcolor="#39e581"] ;
115 -> 116 ;
117 [label="gini = 0.0\nsamples = 13\nvalue = [0, 0, 13]", fillcolor="#8139e5"] ;
115 -> 117 ;
118 [label=" C20 <= -0.5\ngini = 0.658\nsamples = 44\nvalue = [13, 13, 18]", fillcolor="#ebdffb"] ;
56 -> 118 ;
119 [label="gini = 0.0\nsamples = 8\nvalue = [0, 0, 8]", fillcolor="#8139e5"] ;
118 -> 119 ;
120 [label=" C25 <= 0.5\ngini = 0.662\nsamples = 36\nvalue = [13, 13, 10]", fillcolor="#ffffff"] ;
118 -> 120 ;
121 [label=" C33 <= 0.5\ngini = 0.595\nsamples = 25\nvalue = [12, 10, 3]", fillcolor="#fceee5"] ;
120 -> 121 ;
122 [label=" C37 <= -0.5\ngini = 0.583\nsamples = 22\nvalue = [12, 7, 3]", fillcolor="#f6d5bd"] ;
121 -> 122 ;
123 [label=" C7 <= -0.5\ngini = 0.32\nsamples = 5\nvalue = [1, 4, 0]", fillcolor="#6aeca0"] ;
122 -> 123 ;
124 [label=" C38 <= 0.5\ngini = 0.5\nsamples = 2\nvalue = [1, 1, 0]", fillcolor="#ffffff"] ;
123 -> 124 ;
125 [label="gini = 0.0\nsamples = 1\nvalue = [0, 1, 0]", fillcolor="#39e581"] ;
124 -> 125 ;
126 [label="gini = 0.0\nsamples = 1\nvalue = [1, 0, 0]", fillcolor="#e58139"] ;
124 -> 126 ;
127 [label="gini = 0.0\nsamples = 3\nvalue = [0, 3, 0]", fillcolor="#39e581"] ;
123 -> 127 ;
128 [label=" C3 <= 0.5\ngini = 0.519\nsamples = 17\nvalue = [11, 3, 3]", fillcolor="#f0b78e"] ;
122 -> 128 ;
129 [label=" C2 <= -0.5\ngini = 0.439\nsamples = 14\nvalue = [10, 3, 1]", fillcolor="#eeaf81"] ;
128 -> 129 ;
130 [label=" C13 <= 0.5\ngini = 0.5\nsamples = 4\nvalue = [2, 2, 0]", fillcolor="#ffffff"] ;
129 -> 130 ;
131 [label="gini = 0.0\nsamples = 1\nvalue = [1, 0, 0]", fillcolor="#e58139"] ;
130 -> 131 ;
132 [label=" C8 <= 0.5\ngini = 0.444\nsamples = 3\nvalue = [1, 2, 0]", fillcolor="#9cf2c0"] ;
130 -> 132 ;
133 [label="gini = 0.0\nsamples = 2\nvalue = [0, 2, 0]", fillcolor="#39e581"] ;
132 -> 133 ;
134 [label="gini = 0.0\nsamples = 1\nvalue = [1, 0, 0]", fillcolor="#e58139"] ;
132 -> 134 ;
135 [label=" C9 <= 0.5\ngini = 0.34\nsamples = 10\nvalue = [8, 1, 1]", fillcolor="#eb9d65"] ;
129 -> 135 ;
136 [label=" C34 <= 0.5\ngini = 0.219\nsamples = 8\nvalue = [7, 0, 1]", fillcolor="#e99355"] ;
135 -> 136 ;
137 [label="gini = 0.0\nsamples = 5\nvalue = [5, 0, 0]", fillcolor="#e58139"] ;
136 -> 137 ;
138 [label=" C7 <= -0.5\ngini = 0.444\nsamples = 3\nvalue = [2, 0, 1]", fillcolor="#f2c09c"] ;
136 -> 138 ;
139 [label="gini = 0.0\nsamples = 1\nvalue = [0, 0, 1]", fillcolor="#8139e5"] ;
138 -> 139 ;
140 [label="gini = 0.0\nsamples = 2\nvalue = [2, 0, 0]", fillcolor="#e58139"] ;
138 -> 140 ;
141 [label=" C8 <= 0.0\ngini = 0.5\nsamples = 2\nvalue = [1, 1, 0]", fillcolor="#ffffff"] ;
135 -> 141 ;
142 [label="gini = 0.0\nsamples = 1\nvalue = [1, 0, 0]", fillcolor="#e58139"] ;
141 -> 142 ;
143 [label="gini = 0.0\nsamples = 1\nvalue = [0, 1, 0]", fillcolor="#39e581"] ;
141 -> 143 ;
144 [label=" C7 <= -0.5\ngini = 0.444\nsamples = 3\nvalue = [1, 0, 2]", fillcolor="#c09cf2"] ;
128 -> 144 ;
145 [label="gini = 0.0\nsamples = 1\nvalue = [1, 0, 0]", fillcolor="#e58139"] ;
144 -> 145 ;
146 [label="gini = 0.0\nsamples = 2\nvalue = [0, 0, 2]", fillcolor="#8139e5"] ;
144 -> 146 ;
147 [label="gini = 0.0\nsamples = 3\nvalue = [0, 3, 0]", fillcolor="#39e581"] ;
121 -> 147 ;
148 [label=" C31 <= 0.0\ngini = 0.512\nsamples = 11\nvalue = [1, 3, 7]", fillcolor="#c09cf2"] ;
120 -> 148 ;
149 [label=" C26 <= 0.5\ngini = 0.375\nsamples = 4\nvalue = [0, 3, 1]", fillcolor="#7beeab"] ;
148 -> 149 ;
150 [label="gini = 0.0\nsamples = 3\nvalue = [0, 3, 0]", fillcolor="#39e581"] ;
149 -> 150 ;
151 [label="gini = 0.0\nsamples = 1\nvalue = [0, 0, 1]", fillcolor="#8139e5"] ;
149 -> 151 ;
152 [label=" C37 <= -0.5\ngini = 0.245\nsamples = 7\nvalue = [1, 0, 6]", fillcolor="#965ae9"] ;
148 -> 152 ;
153 [label=" C14 <= -0.5\ngini = 0.5\nsamples = 2\nvalue = [1, 0, 1]", fillcolor="#ffffff"] ;
152 -> 153 ;
154 [label="gini = 0.0\nsamples = 1\nvalue = [0, 0, 1]", fillcolor="#8139e5"] ;
153 -> 154 ;
155 [label="gini = 0.0\nsamples = 1\nvalue = [1, 0, 0]", fillcolor="#e58139"] ;
153 -> 155 ;
156 [label="gini = 0.0\nsamples = 5\nvalue = [0, 0, 5]", fillcolor="#8139e5"] ;
152 -> 156 ;
157 [label=" C13 <= -0.5\ngini = 0.227\nsamples = 351\nvalue = [23, 21, 307]", fillcolor="#9254e8"] ;
25 -> 157 ;
158 [label=" C9 <= 0.5\ngini = 0.643\nsamples = 23\nvalue = [5, 8, 10]", fillcolor="#eee5fc"] ;
157 -> 158 ;
159 [label=" C4 <= 0.5\ngini = 0.654\nsamples = 19\nvalue = [5, 8, 6]", fillcolor="#e1fbec"] ;
158 -> 159 ;
160 [label=" C39 <= 0.5\ngini = 0.623\nsamples = 17\nvalue = [3, 8, 6]", fillcolor="#dbfae8"] ;
159 -> 160 ;
161 [label=" C37 <= -0.5\ngini = 0.594\nsamples = 16\nvalue = [2, 8, 6]", fillcolor="#d7fae6"] ;
160 -> 161 ;
162 [label="gini = 0.0\nsamples = 2\nvalue = [0, 2, 0]", fillcolor="#39e581"] ;
161 -> 162 ;
163 [label=" C10 <= 0.5\ngini = 0.612\nsamples = 14\nvalue = [2, 6, 6]", fillcolor="#ffffff"] ;
161 -> 163 ;
164 [label=" C15 <= 0.5\ngini = 0.569\nsamples = 12\nvalue = [1, 6, 5]", fillcolor="#e3fbed"] ;
163 -> 164 ;
165 [label=" C9 <= -0.5\ngini = 0.5\nsamples = 10\nvalue = [0, 5, 5]", fillcolor="#ffffff"] ;
164 -> 165 ;
166 [label="gini = 0.0\nsamples = 1\nvalue = [0, 1, 0]", fillcolor="#39e581"] ;
165 -> 166 ;
167 [label=" C34 <= 0.5\ngini = 0.494\nsamples = 9\nvalue = [0, 4, 5]", fillcolor="#e6d7fa"] ;
165 -> 167 ;
168 [label=" C25 <= -0.5\ngini = 0.469\nsamples = 8\nvalue = [0, 3, 5]", fillcolor="#cdb0f5"] ;
167 -> 168 ;
169 [label="gini = 0.0\nsamples = 1\nvalue = [0, 1, 0]", fillcolor="#39e581"] ;
168 -> 169 ;
170 [label=" C2 <= -0.5\ngini = 0.408\nsamples = 7\nvalue = [0, 2, 5]", fillcolor="#b388ef"] ;
168 -> 170 ;
171 [label=" C8 <= 0.5\ngini = 0.444\nsamples = 3\nvalue = [0, 2, 1]", fillcolor="#9cf2c0"] ;
170 -> 171 ;
172 [label="gini = 0.0\nsamples = 1\nvalue = [0, 0, 1]", fillcolor="#8139e5"] ;
171 -> 172 ;
173 [label="gini = 0.0\nsamples = 2\nvalue = [0, 2, 0]", fillcolor="#39e581"] ;
171 -> 173 ;
174 [label="gini = 0.0\nsamples = 4\nvalue = [0, 0, 4]", fillcolor="#8139e5"] ;
170 -> 174 ;
175 [label="gini = 0.0\nsamples = 1\nvalue = [0, 1, 0]", fillcolor="#39e581"] ;
167 -> 175 ;
176 [label=" C32 <= 0.5\ngini = 0.5\nsamples = 2\nvalue = [1, 1, 0]", fillcolor="#ffffff"] ;
164 -> 176 ;
177 [label="gini = 0.0\nsamples = 1\nvalue = [0, 1, 0]", fillcolor="#39e581"] ;
176 -> 177 ;
178 [label="gini = 0.0\nsamples = 1\nvalue = [1, 0, 0]", fillcolor="#e58139"] ;
176 -> 178 ;
179 [label=" C11 <= 0.5\ngini = 0.5\nsamples = 2\nvalue = [1, 0, 1]", fillcolor="#ffffff"] ;
163 -> 179 ;
180 [label="gini = 0.0\nsamples = 1\nvalue = [1, 0, 0]", fillcolor="#e58139"] ;
179 -> 180 ;
181 [label="gini = 0.0\nsamples = 1\nvalue = [0, 0, 1]", fillcolor="#8139e5"] ;
179 -> 181 ;
182 [label="gini = 0.0\nsamples = 1\nvalue = [1, 0, 0]", fillcolor="#e58139"] ;
160 -> 182 ;
183 [label="gini = 0.0\nsamples = 2\nvalue = [2, 0, 0]", fillcolor="#e58139"] ;
159 -> 183 ;
184 [label="gini = 0.0\nsamples = 4\nvalue = [0, 0, 4]", fillcolor="#8139e5"] ;
158 -> 184 ;
185 [label=" C8 <= 0.5\ngini = 0.176\nsamples = 328\nvalue = [18, 13, 297]", fillcolor="#8e4de8"] ;
157 -> 185 ;
186 [label=" C25 <= -0.5\ngini = 0.088\nsamples = 198\nvalue = [5, 4, 189]", fillcolor="#8742e6"] ;
185 -> 186 ;
187 [label=" C37 <= -0.5\ngini = 0.357\nsamples = 28\nvalue = [2, 4, 22]", fillcolor="#a06bec"] ;
186 -> 187 ;
188 [label=" C38 <= 0.5\ngini = 0.444\nsamples = 3\nvalue = [0, 2, 1]", fillcolor="#9cf2c0"] ;
187 -> 188 ;
189 [label="gini = 0.0\nsamples = 2\nvalue = [0, 2, 0]", fillcolor="#39e581"] ;
188 -> 189 ;
190 [label="gini = 0.0\nsamples = 1\nvalue = [0, 0, 1]", fillcolor="#8139e5"] ;
188 -> 190 ;
191 [label=" C15 <= 0.5\ngini = 0.282\nsamples = 25\nvalue = [2, 2, 21]", fillcolor="#975bea"] ;
187 -> 191 ;
192 [label=" C31 <= 0.5\ngini = 0.226\nsamples = 24\nvalue = [1, 2, 21]", fillcolor="#9254e9"] ;
191 -> 192 ;
193 [label="gini = 0.0\nsamples = 11\nvalue = [0, 0, 11]", fillcolor="#8139e5"] ;
192 -> 193 ;
194 [label=" C27 <= 0.5\ngini = 0.379\nsamples = 13\nvalue = [1, 2, 10]", fillcolor="#a36fec"] ;
192 -> 194 ;
195 [label=" C2 <= -0.5\ngini = 0.292\nsamples = 12\nvalue = [1, 1, 10]", fillcolor="#985dea"] ;
194 -> 195 ;
196 [label=" C26 <= 0.5\ngini = 0.667\nsamples = 3\nvalue = [1, 1, 1]", fillcolor="#ffffff"] ;
195 -> 196 ;
197 [label=" C32 <= 0.5\ngini = 0.5\nsamples = 2\nvalue = [0, 1, 1]", fillcolor="#ffffff"] ;
196 -> 197 ;
198 [label="gini = 0.0\nsamples = 1\nvalue = [0, 0, 1]", fillcolor="#8139e5"] ;
197 -> 198 ;
199 [label="gini = 0.0\nsamples = 1\nvalue = [0, 1, 0]", fillcolor="#39e581"] ;
197 -> 199 ;
200 [label="gini = 0.0\nsamples = 1\nvalue = [1, 0, 0]", fillcolor="#e58139"] ;
196 -> 200 ;
201 [label="gini = 0.0\nsamples = 9\nvalue = [0, 0, 9]", fillcolor="#8139e5"] ;
195 -> 201 ;
202 [label="gini = 0.0\nsamples = 1\nvalue = [0, 1, 0]", fillcolor="#39e581"] ;
194 -> 202 ;
203 [label="gini = 0.0\nsamples = 1\nvalue = [1, 0, 0]", fillcolor="#e58139"] ;
191 -> 203 ;
204 [label=" C32 <= 0.5\ngini = 0.035\nsamples = 170\nvalue = [3, 0, 167]", fillcolor="#833de5"] ;
186 -> 204 ;
205 [label="gini = 0.0\nsamples = 131\nvalue = [0, 0, 131]", fillcolor="#8139e5"] ;
204 -> 205 ;
206 [label=" C4 <= 0.5\ngini = 0.142\nsamples = 39\nvalue = [3, 0, 36]", fillcolor="#8c49e7"] ;
204 -> 206 ;
207 [label=" C34 <= 0.5\ngini = 0.1\nsamples = 38\nvalue = [2, 0, 36]", fillcolor="#8844e6"] ;
206 -> 207 ;
208 [label=" C37 <= -0.5\ngini = 0.057\nsamples = 34\nvalue = [1, 0, 33]", fillcolor="#853fe6"] ;
207 -> 208 ;
209 [label=" C2 <= -0.5\ngini = 0.219\nsamples = 8\nvalue = [1, 0, 7]", fillcolor="#9355e9"] ;
208 -> 209 ;
210 [label="gini = 0.0\nsamples = 1\nvalue = [1, 0, 0]", fillcolor="#e58139"] ;
209 -> 210 ;
211 [label="gini = 0.0\nsamples = 7\nvalue = [0, 0, 7]", fillcolor="#8139e5"] ;
209 -> 211 ;
212 [label="gini = 0.0\nsamples = 26\nvalue = [0, 0, 26]", fillcolor="#8139e5"] ;
208 -> 212 ;
213 [label=" C13 <= 0.5\ngini = 0.375\nsamples = 4\nvalue = [1, 0, 3]", fillcolor="#ab7bee"] ;
207 -> 213 ;
214 [label="gini = 0.0\nsamples = 3\nvalue = [0, 0, 3]", fillcolor="#8139e5"] ;
213 -> 214 ;
215 [label="gini = 0.0\nsamples = 1\nvalue = [1, 0, 0]", fillcolor="#e58139"] ;
213 -> 215 ;
216 [label="gini = 0.0\nsamples = 1\nvalue = [1, 0, 0]", fillcolor="#e58139"] ;
206 -> 216 ;
217 [label=" C11 <= -0.5\ngini = 0.295\nsamples = 130\nvalue = [13, 9, 108]", fillcolor="#995eea"] ;
185 -> 217 ;
218 [label=" C25 <= 0.5\ngini = 0.444\nsamples = 3\nvalue = [2, 1, 0]", fillcolor="#f2c09c"] ;
217 -> 218 ;
219 [label="gini = 0.0\nsamples = 2\nvalue = [2, 0, 0]", fillcolor="#e58139"] ;
218 -> 219 ;
220 [label="gini = 0.0\nsamples = 1\nvalue = [0, 1, 0]", fillcolor="#39e581"] ;
218 -> 220 ;
221 [label=" C38 <= -0.5\ngini = 0.265\nsamples = 127\nvalue = [11, 8, 108]", fillcolor="#9659e9"] ;
217 -> 221 ;
222 [label=" C31 <= 0.5\ngini = 0.625\nsamples = 4\nvalue = [2, 1, 1]", fillcolor="#f6d5bd"] ;
221 -> 222 ;
223 [label=" C13 <= 0.5\ngini = 0.5\nsamples = 2\nvalue = [0, 1, 1]", fillcolor="#ffffff"] ;
222 -> 223 ;
224 [label="gini = 0.0\nsamples = 1\nvalue = [0, 1, 0]", fillcolor="#39e581"] ;
223 -> 224 ;
225 [label="gini = 0.0\nsamples = 1\nvalue = [0, 0, 1]", fillcolor="#8139e5"] ;
223 -> 225 ;
226 [label="gini = 0.0\nsamples = 2\nvalue = [2, 0, 0]", fillcolor="#e58139"] ;
222 -> 226 ;
227 [label=" C2 <= -0.5\ngini = 0.235\nsamples = 123\nvalue = [9, 7, 107]", fillcolor="#9355e9"] ;
221 -> 227 ;
228 [label=" C5 <= -0.5\ngini = 0.448\nsamples = 42\nvalue = [7, 5, 30]", fillcolor="#ac7dee"] ;
227 -> 228 ;
229 [label="gini = 0.0\nsamples = 1\nvalue = [1, 0, 0]", fillcolor="#e58139"] ;
228 -> 229 ;
230 [label=" C15 <= 0.5\ngini = 0.428\nsamples = 41\nvalue = [6, 5, 30]", fillcolor="#a977ed"] ;
228 -> 230 ;
231 [label=" C10 <= 0.5\ngini = 0.406\nsamples = 40\nvalue = [5, 5, 30]", fillcolor="#a572ec"] ;
230 -> 231 ;
232 [label=" C37 <= -0.5\ngini = 0.381\nsamples = 39\nvalue = [4, 5, 30]", fillcolor="#a26dec"] ;
231 -> 232 ;
233 [label=" C25 <= 0.5\ngini = 0.62\nsamples = 10\nvalue = [2, 3, 5]", fillcolor="#dbc6f8"] ;
232 -> 233 ;
234 [label=" C13 <= 0.5\ngini = 0.568\nsamples = 9\nvalue = [1, 3, 5]", fillcolor="#d5bdf6"] ;
233 -> 234 ;
235 [label=" C38 <= 0.5\ngini = 0.611\nsamples = 6\nvalue = [1, 3, 2]", fillcolor="#cef8e0"] ;
234 -> 235 ;
236 [label="gini = 0.0\nsamples = 3\nvalue = [0, 3, 0]", fillcolor="#39e581"] ;
235 -> 236 ;
237 [label=" C3 <= 0.5\ngini = 0.444\nsamples = 3\nvalue = [1, 0, 2]", fillcolor="#c09cf2"] ;
235 -> 237 ;
238 [label="gini = 0.0\nsamples = 2\nvalue = [0, 0, 2]", fillcolor="#8139e5"] ;
237 -> 238 ;
239 [label="gini = 0.0\nsamples = 1\nvalue = [1, 0, 0]", fillcolor="#e58139"] ;
237 -> 239 ;
240 [label="gini = 0.0\nsamples = 3\nvalue = [0, 0, 3]", fillcolor="#8139e5"] ;
234 -> 240 ;
241 [label="gini = 0.0\nsamples = 1\nvalue = [1, 0, 0]", fillcolor="#e58139"] ;
233 -> 241 ;
242 [label=" C3 <= -0.5\ngini = 0.247\nsamples = 29\nvalue = [2, 2, 25]", fillcolor="#9456e9"] ;
232 -> 242 ;
243 [label=" C31 <= 0.5\ngini = 0.5\nsamples = 2\nvalue = [1, 0, 1]", fillcolor="#ffffff"] ;
242 -> 243 ;
244 [label="gini = 0.0\nsamples = 1\nvalue = [1, 0, 0]", fillcolor="#e58139"] ;
243 -> 244 ;
245 [label="gini = 0.0\nsamples = 1\nvalue = [0, 0, 1]", fillcolor="#8139e5"] ;
243 -> 245 ;
246 [label=" C4 <= -0.5\ngini = 0.203\nsamples = 27\nvalue = [1, 2, 24]", fillcolor="#9051e8"] ;
242 -> 246 ;
247 [label=" C31 <= 0.5\ngini = 0.5\nsamples = 2\nvalue = [0, 1, 1]", fillcolor="#ffffff"] ;
246 -> 247 ;
248 [label="gini = 0.0\nsamples = 1\nvalue = [0, 0, 1]", fillcolor="#8139e5"] ;
247 -> 248 ;
249 [label="gini = 0.0\nsamples = 1\nvalue = [0, 1, 0]", fillcolor="#39e581"] ;
247 -> 249 ;
250 [label=" C26 <= 0.5\ngini = 0.15\nsamples = 25\nvalue = [1, 1, 23]", fillcolor="#8c49e7"] ;
246 -> 250 ;
251 [label=" C31 <= -0.5\ngini = 0.087\nsamples = 22\nvalue = [1, 0, 21]", fillcolor="#8742e6"] ;
250 -> 251 ;
252 [label=" C13 <= 0.5\ngini = 0.375\nsamples = 4\nvalue = [1, 0, 3]", fillcolor="#ab7bee"] ;
251 -> 252 ;
253 [label="gini = 0.0\nsamples = 3\nvalue = [0, 0, 3]", fillcolor="#8139e5"] ;
252 -> 253 ;
254 [label="gini = 0.0\nsamples = 1\nvalue = [1, 0, 0]", fillcolor="#e58139"] ;
252 -> 254 ;
255 [label="gini = 0.0\nsamples = 18\nvalue = [0, 0, 18]", fillcolor="#8139e5"] ;
251 -> 255 ;
256 [label=" C13 <= 0.5\ngini = 0.444\nsamples = 3\nvalue = [0, 1, 2]", fillcolor="#c09cf2"] ;
250 -> 256 ;
257 [label="gini = 0.0\nsamples = 2\nvalue = [0, 0, 2]", fillcolor="#8139e5"] ;
256 -> 257 ;
258 [label="gini = 0.0\nsamples = 1\nvalue = [0, 1, 0]", fillcolor="#39e581"] ;
256 -> 258 ;
259 [label="gini = 0.0\nsamples = 1\nvalue = [1, 0, 0]", fillcolor="#e58139"] ;
231 -> 259 ;
260 [label="gini = 0.0\nsamples = 1\nvalue = [1, 0, 0]", fillcolor="#e58139"] ;
230 -> 260 ;
261 [label=" C33 <= -0.5\ngini = 0.095\nsamples = 81\nvalue = [2, 2, 77]", fillcolor="#8743e6"] ;
227 -> 261 ;
262 [label=" C32 <= 0.0\ngini = 0.444\nsamples = 3\nvalue = [1, 0, 2]", fillcolor="#c09cf2"] ;
261 -> 262 ;
263 [label="gini = 0.0\nsamples = 1\nvalue = [0, 0, 1]", fillcolor="#8139e5"] ;
262 -> 263 ;
264 [label=" C34 <= 0.5\ngini = 0.5\nsamples = 2\nvalue = [1, 0, 1]", fillcolor="#ffffff"] ;
262 -> 264 ;
265 [label="gini = 0.0\nsamples = 1\nvalue = [1, 0, 0]", fillcolor="#e58139"] ;
264 -> 265 ;
266 [label="gini = 0.0\nsamples = 1\nvalue = [0, 0, 1]", fillcolor="#8139e5"] ;
264 -> 266 ;
267 [label=" C37 <= -0.5\ngini = 0.075\nsamples = 78\nvalue = [1, 2, 75]", fillcolor="#8641e6"] ;
261 -> 267 ;
268 [label=" C25 <= -0.5\ngini = 0.194\nsamples = 19\nvalue = [1, 1, 17]", fillcolor="#8f4fe8"] ;
267 -> 268 ;
269 [label="gini = 0.0\nsamples = 1\nvalue = [1, 0, 0]", fillcolor="#e58139"] ;
268 -> 269 ;
270 [label=" C11 <= 0.5\ngini = 0.105\nsamples = 18\nvalue = [0, 1, 17]", fillcolor="#8845e7"] ;
268 -> 270 ;
271 [label="gini = 0.0\nsamples = 16\nvalue = [0, 0, 16]", fillcolor="#8139e5"] ;
270 -> 271 ;
272 [label=" C10 <= 0.0\ngini = 0.5\nsamples = 2\nvalue = [0, 1, 1]", fillcolor="#ffffff"] ;
270 -> 272 ;
273 [label="gini = 0.0\nsamples = 1\nvalue = [0, 0, 1]", fillcolor="#8139e5"] ;
272 -> 273 ;
274 [label="gini = 0.0\nsamples = 1\nvalue = [0, 1, 0]", fillcolor="#39e581"] ;
272 -> 274 ;
275 [label=" C25 <= 0.5\ngini = 0.033\nsamples = 59\nvalue = [0, 1, 58]", fillcolor="#833ce5"] ;
267 -> 275 ;
276 [label="gini = 0.0\nsamples = 51\nvalue = [0, 0, 51]", fillcolor="#8139e5"] ;
275 -> 276 ;
277 [label=" C9 <= 0.5\ngini = 0.219\nsamples = 8\nvalue = [0, 1, 7]", fillcolor="#9355e9"] ;
275 -> 277 ;
278 [label="gini = 0.0\nsamples = 6\nvalue = [0, 0, 6]", fillcolor="#8139e5"] ;
277 -> 278 ;
279 [label=" C31 <= -0.5\ngini = 0.5\nsamples = 2\nvalue = [0, 1, 1]", fillcolor="#ffffff"] ;
277 -> 279 ;
280 [label="gini = 0.0\nsamples = 1\nvalue = [0, 1, 0]", fillcolor="#39e581"] ;
279 -> 280 ;
281 [label="gini = 0.0\nsamples = 1\nvalue = [0, 0, 1]", fillcolor="#8139e5"] ;
279 -> 281 ;
282 [label=" C7 <= -0.5\ngini = 0.586\nsamples = 393\nvalue = [40, 169, 184]", fillcolor="#f7f2fd"] ;
24 -> 282 ;
283 [label=" C25 <= 0.5\ngini = 0.332\nsamples = 55\nvalue = [2, 44, 9]", fillcolor="#68eb9f"] ;
282 -> 283 ;
284 [label=" C39 <= 0.5\ngini = 0.112\nsamples = 34\nvalue = [1, 32, 1]", fillcolor="#45e789"] ;
283 -> 284 ;
285 [label=" C21 <= -0.5\ngini = 0.059\nsamples = 33\nvalue = [0, 32, 1]", fillcolor="#3fe685"] ;
284 -> 285 ;
286 [label=" C32 <= 0.5\ngini = 0.278\nsamples = 6\nvalue = [0, 5, 1]", fillcolor="#61ea9a"] ;
285 -> 286 ;
287 [label="gini = 0.0\nsamples = 5\nvalue = [0, 5, 0]", fillcolor="#39e581"] ;
286 -> 287 ;
288 [label="gini = 0.0\nsamples = 1\nvalue = [0, 0, 1]", fillcolor="#8139e5"] ;
286 -> 288 ;
289 [label="gini = 0.0\nsamples = 27\nvalue = [0, 27, 0]", fillcolor="#39e581"] ;
285 -> 289 ;
290 [label="gini = 0.0\nsamples = 1\nvalue = [1, 0, 0]", fillcolor="#e58139"] ;
284 -> 290 ;
291 [label=" C21 <= -0.5\ngini = 0.526\nsamples = 21\nvalue = [1, 12, 8]", fillcolor="#c2f7d8"] ;
283 -> 291 ;
292 [label="gini = 0.0\nsamples = 3\nvalue = [0, 0, 3]", fillcolor="#8139e5"] ;
291 -> 292 ;
293 [label=" C32 <= -0.5\ngini = 0.475\nsamples = 18\nvalue = [1, 12, 5]", fillcolor="#94f1bb"] ;
291 -> 293 ;
294 [label="gini = 0.0\nsamples = 1\nvalue = [1, 0, 0]", fillcolor="#e58139"] ;
293 -> 294 ;
295 [label=" C3 <= 0.5\ngini = 0.415\nsamples = 17\nvalue = [0, 12, 5]", fillcolor="#8bf0b5"] ;
293 -> 295 ;
296 [label=" C26 <= -0.5\ngini = 0.375\nsamples = 16\nvalue = [0, 12, 4]", fillcolor="#7beeab"] ;
295 -> 296 ;
297 [label=" C27 <= 0.5\ngini = 0.444\nsamples = 3\nvalue = [0, 1, 2]", fillcolor="#c09cf2"] ;
296 -> 297 ;
298 [label="gini = 0.0\nsamples = 2\nvalue = [0, 0, 2]", fillcolor="#8139e5"] ;
297 -> 298 ;
299 [label="gini = 0.0\nsamples = 1\nvalue = [0, 1, 0]", fillcolor="#39e581"] ;
297 -> 299 ;
300 [label=" C38 <= 0.5\ngini = 0.26\nsamples = 13\nvalue = [0, 11, 2]", fillcolor="#5dea98"] ;
296 -> 300 ;
301 [label=" C14 <= -0.5\ngini = 0.153\nsamples = 12\nvalue = [0, 11, 1]", fillcolor="#4be78c"] ;
300 -> 301 ;
302 [label=" C8 <= 0.5\ngini = 0.444\nsamples = 3\nvalue = [0, 2, 1]", fillcolor="#9cf2c0"] ;
301 -> 302 ;
303 [label="gini = 0.0\nsamples = 2\nvalue = [0, 2, 0]", fillcolor="#39e581"] ;
302 -> 303 ;
304 [label="gini = 0.0\nsamples = 1\nvalue = [0, 0, 1]", fillcolor="#8139e5"] ;
302 -> 304 ;
305 [label="gini = 0.0\nsamples = 9\nvalue = [0, 9, 0]", fillcolor="#39e581"] ;
301 -> 305 ;
306 [label="gini = 0.0\nsamples = 1\nvalue = [0, 0, 1]", fillcolor="#8139e5"] ;
300 -> 306 ;
307 [label="gini = 0.0\nsamples = 1\nvalue = [0, 0, 1]", fillcolor="#8139e5"] ;
295 -> 307 ;
308 [label=" C13 <= -0.5\ngini = 0.583\nsamples = 338\nvalue = [38, 125, 175]", fillcolor="#e1d1f9"] ;
282 -> 308 ;
309 [label=" C39 <= 0.5\ngini = 0.371\nsamples = 40\nvalue = [3, 31, 6]", fillcolor="#6deca2"] ;
308 -> 309 ;
310 [label=" C25 <= 0.5\ngini = 0.346\nsamples = 39\nvalue = [3, 31, 5]", fillcolor="#68eb9f"] ;
309 -> 310 ;
311 [label=" C21 <= -0.5\ngini = 0.163\nsamples = 23\nvalue = [1, 21, 1]", fillcolor="#4be78c"] ;
310 -> 311 ;
312 [label=" C22 <= 0.5\ngini = 0.56\nsamples = 5\nvalue = [1, 3, 1]", fillcolor="#9cf2c0"] ;
311 -> 312 ;
313 [label=" C32 <= 0.5\ngini = 0.5\nsamples = 2\nvalue = [1, 0, 1]", fillcolor="#ffffff"] ;
312 -> 313 ;
314 [label="gini = 0.0\nsamples = 1\nvalue = [1, 0, 0]", fillcolor="#e58139"] ;
313 -> 314 ;
315 [label="gini = 0.0\nsamples = 1\nvalue = [0, 0, 1]", fillcolor="#8139e5"] ;
313 -> 315 ;
316 [label="gini = 0.0\nsamples = 3\nvalue = [0, 3, 0]", fillcolor="#39e581"] ;
312 -> 316 ;
317 [label="gini = 0.0\nsamples = 18\nvalue = [0, 18, 0]", fillcolor="#39e581"] ;
311 -> 317 ;
318 [label=" C31 <= 0.5\ngini = 0.531\nsamples = 16\nvalue = [2, 10, 4]", fillcolor="#9cf2c0"] ;
310 -> 318 ;
319 [label=" C26 <= -0.5\ngini = 0.292\nsamples = 12\nvalue = [1, 10, 1]", fillcolor="#5dea98"] ;
318 -> 319 ;
320 [label=" C27 <= 0.5\ngini = 0.5\nsamples = 2\nvalue = [1, 1, 0]", fillcolor="#ffffff"] ;
319 -> 320 ;
321 [label="gini = 0.0\nsamples = 1\nvalue = [1, 0, 0]", fillcolor="#e58139"] ;
320 -> 321 ;
322 [label="gini = 0.0\nsamples = 1\nvalue = [0, 1, 0]", fillcolor="#39e581"] ;
320 -> 322 ;
323 [label=" C14 <= -0.5\ngini = 0.18\nsamples = 10\nvalue = [0, 9, 1]", fillcolor="#4fe88f"] ;
319 -> 323 ;
324 [label=" C26 <= 0.5\ngini = 0.5\nsamples = 2\nvalue = [0, 1, 1]", fillcolor="#ffffff"] ;
323 -> 324 ;
325 [label="gini = 0.0\nsamples = 1\nvalue = [0, 1, 0]", fillcolor="#39e581"] ;
324 -> 325 ;
326 [label="gini = 0.0\nsamples = 1\nvalue = [0, 0, 1]", fillcolor="#8139e5"] ;
324 -> 326 ;
327 [label="gini = 0.0\nsamples = 8\nvalue = [0, 8, 0]", fillcolor="#39e581"] ;
323 -> 327 ;
328 [label=" C2 <= -0.5\ngini = 0.375\nsamples = 4\nvalue = [1, 0, 3]", fillcolor="#ab7bee"] ;
318 -> 328 ;
329 [label="gini = 0.0\nsamples = 1\nvalue = [1, 0, 0]", fillcolor="#e58139"] ;
328 -> 329 ;
330 [label="gini = 0.0\nsamples = 3\nvalue = [0, 0, 3]", fillcolor="#8139e5"] ;
328 -> 330 ;
331 [label="gini = 0.0\nsamples = 1\nvalue = [0, 0, 1]", fillcolor="#8139e5"] ;
309 -> 331 ;
332 [label=" C13 <= 0.5\ngini = 0.565\nsamples = 298\nvalue = [35, 94, 169]", fillcolor="#d1b6f5"] ;
308 -> 332 ;
333 [label=" C25 <= 0.5\ngini = 0.61\nsamples = 154\nvalue = [22, 61, 71]", fillcolor="#f1eafc"] ;
332 -> 333 ;
334 [label=" C33 <= -0.5\ngini = 0.608\nsamples = 91\nvalue = [14, 45, 32]", fillcolor="#d3f9e3"] ;
333 -> 334 ;
335 [label="gini = 0.0\nsamples = 5\nvalue = [0, 5, 0]", fillcolor="#39e581"] ;
334 -> 335 ;
336 [label=" C25 <= -0.5\ngini = 0.619\nsamples = 86\nvalue = [14, 40, 32]", fillcolor="#e2fbec"] ;
334 -> 336 ;
337 [label=" C7 <= 0.5\ngini = 0.32\nsamples = 5\nvalue = [0, 1, 4]", fillcolor="#a06aec"] ;
336 -> 337 ;
338 [label="gini = 0.0\nsamples = 1\nvalue = [0, 1, 0]", fillcolor="#39e581"] ;
337 -> 338 ;
339 [label="gini = 0.0\nsamples = 4\nvalue = [0, 0, 4]", fillcolor="#8139e5"] ;
337 -> 339 ;
340 [label=" C39 <= 0.5\ngini = 0.619\nsamples = 81\nvalue = [14, 39, 28]", fillcolor="#d6fae5"] ;
336 -> 340 ;
341 [label=" C37 <= -0.5\ngini = 0.617\nsamples = 79\nvalue = [14, 39, 26]", fillcolor="#cef9e0"] ;
340 -> 341 ;
342 [label=" C4 <= 0.5\ngini = 0.537\nsamples = 18\nvalue = [5, 11, 2]", fillcolor="#a4f3c5"] ;
341 -> 342 ;
343 [label=" C38 <= 0.5\ngini = 0.477\nsamples = 16\nvalue = [3, 11, 2]", fillcolor="#85efb1"] ;
342 -> 343 ;
344 [label=" C32 <= 0.5\ngini = 0.198\nsamples = 9\nvalue = [1, 8, 0]", fillcolor="#52e891"] ;
343 -> 344 ;
345 [label="gini = 0.0\nsamples = 8\nvalue = [0, 8, 0]", fillcolor="#39e581"] ;
344 -> 345 ;
346 [label="gini = 0.0\nsamples = 1\nvalue = [1, 0, 0]", fillcolor="#e58139"] ;
344 -> 346 ;
347 [label=" C8 <= -0.5\ngini = 0.653\nsamples = 7\nvalue = [2, 3, 2]", fillcolor="#d7fae6"] ;
343 -> 347 ;
348 [label="gini = 0.0\nsamples = 1\nvalue = [0, 0, 1]", fillcolor="#8139e5"] ;
347 -> 348 ;
349 [label=" C21 <= -0.5\ngini = 0.611\nsamples = 6\nvalue = [2, 3, 1]", fillcolor="#cef8e0"] ;
347 -> 349 ;
350 [label=" C22 <= 0.5\ngini = 0.5\nsamples = 2\nvalue = [1, 0, 1]", fillcolor="#ffffff"] ;
349 -> 350 ;
351 [label="gini = 0.0\nsamples = 1\nvalue = [0, 0, 1]", fillcolor="#8139e5"] ;
350 -> 351 ;
352 [label="gini = 0.0\nsamples = 1\nvalue = [1, 0, 0]", fillcolor="#e58139"] ;
350 -> 352 ;
353 [label=" C31 <= 0.5\ngini = 0.375\nsamples = 4\nvalue = [1, 3, 0]", fillcolor="#7beeab"] ;
349 -> 353 ;
354 [label="gini = 0.0\nsamples = 3\nvalue = [0, 3, 0]", fillcolor="#39e581"] ;
353 -> 354 ;
355 [label="gini = 0.0\nsamples = 1\nvalue = [1, 0, 0]", fillcolor="#e58139"] ;
353 -> 355 ;
356 [label="gini = 0.0\nsamples = 2\nvalue = [2, 0, 0]", fillcolor="#e58139"] ;
342 -> 356 ;
357 [label=" C31 <= -0.5\ngini = 0.613\nsamples = 61\nvalue = [9, 28, 24]", fillcolor="#eafcf1"] ;
341 -> 357 ;
358 [label="gini = 0.0\nsamples = 2\nvalue = [0, 0, 2]", fillcolor="#8139e5"] ;
357 -> 358 ;
359 [label=" C22 <= -0.5\ngini = 0.612\nsamples = 59\nvalue = [9, 28, 22]", fillcolor="#dffbeb"] ;
357 -> 359 ;
360 [label="gini = 0.0\nsamples = 2\nvalue = [0, 0, 2]", fillcolor="#8139e5"] ;
359 -> 360 ;
361 [label=" C32 <= -0.5\ngini = 0.611\nsamples = 57\nvalue = [9, 28, 20]", fillcolor="#d4f9e4"] ;
359 -> 361 ;
362 [label=" C33 <= 0.5\ngini = 0.54\nsamples = 10\nvalue = [1, 3, 6]", fillcolor="#c9aaf4"] ;
361 -> 362 ;
363 [label="gini = 0.0\nsamples = 4\nvalue = [0, 0, 4]", fillcolor="#8139e5"] ;
362 -> 363 ;
364 [label=" C34 <= -0.5\ngini = 0.611\nsamples = 6\nvalue = [1, 3, 2]", fillcolor="#cef8e0"] ;
362 -> 364 ;
365 [label=" C35 <= 0.5\ngini = 0.5\nsamples = 2\nvalue = [1, 0, 1]", fillcolor="#ffffff"] ;
364 -> 365 ;
366 [label="gini = 0.0\nsamples = 1\nvalue = [1, 0, 0]", fillcolor="#e58139"] ;
365 -> 366 ;
367 [label="gini = 0.0\nsamples = 1\nvalue = [0, 0, 1]", fillcolor="#8139e5"] ;
365 -> 367 ;
368 [label=" C8 <= -0.5\ngini = 0.375\nsamples = 4\nvalue = [0, 3, 1]", fillcolor="#7beeab"] ;
364 -> 368 ;
369 [label="gini = 0.0\nsamples = 1\nvalue = [0, 0, 1]", fillcolor="#8139e5"] ;
368 -> 369 ;
370 [label="gini = 0.0\nsamples = 3\nvalue = [0, 3, 0]", fillcolor="#39e581"] ;
368 -> 370 ;
371 [label=" C21 <= -0.5\ngini = 0.599\nsamples = 47\nvalue = [8, 25, 14]", fillcolor="#bdf6d5"] ;
361 -> 371 ;
372 [label=" C22 <= 0.5\ngini = 0.622\nsamples = 24\nvalue = [4, 9, 11]", fillcolor="#eee5fc"] ;
371 -> 372 ;
373 [label=" C9 <= -0.5\ngini = 0.37\nsamples = 9\nvalue = [1, 1, 7]", fillcolor="#a06aec"] ;
372 -> 373 ;
374 [label=" C10 <= 0.5\ngini = 0.5\nsamples = 2\nvalue = [1, 1, 0]", fillcolor="#ffffff"] ;
373 -> 374 ;
375 [label="gini = 0.0\nsamples = 1\nvalue = [0, 1, 0]", fillcolor="#39e581"] ;
374 -> 375 ;
376 [label="gini = 0.0\nsamples = 1\nvalue = [1, 0, 0]", fillcolor="#e58139"] ;
374 -> 376 ;
377 [label="gini = 0.0\nsamples = 7\nvalue = [0, 0, 7]", fillcolor="#8139e5"] ;
373 -> 377 ;
378 [label=" C8 <= -0.5\ngini = 0.604\nsamples = 15\nvalue = [3, 8, 4]", fillcolor="#b7f6d1"] ;
372 -> 378 ;
379 [label="gini = 0.0\nsamples = 3\nvalue = [0, 3, 0]", fillcolor="#39e581"] ;
378 -> 379 ;
380 [label=" C24 <= -0.5\ngini = 0.653\nsamples = 12\nvalue = [3, 5, 4]", fillcolor="#e6fcef"] ;
378 -> 380 ;
381 [label="gini = 0.0\nsamples = 2\nvalue = [0, 2, 0]", fillcolor="#39e581"] ;
380 -> 381 ;
382 [label=" C7 <= 0.5\ngini = 0.66\nsamples = 10\nvalue = [3, 3, 4]", fillcolor="#ede3fb"] ;
380 -> 382 ;
383 [label=" C32 <= 0.5\ngini = 0.5\nsamples = 4\nvalue = [0, 2, 2]", fillcolor="#ffffff"] ;
382 -> 383 ;
384 [label=" C23 <= 0.0\ngini = 0.444\nsamples = 3\nvalue = [0, 1, 2]", fillcolor="#c09cf2"] ;
383 -> 384 ;
385 [label="gini = 0.0\nsamples = 1\nvalue = [0, 0, 1]", fillcolor="#8139e5"] ;
384 -> 385 ;
386 [label=" C31 <= 0.5\ngini = 0.5\nsamples = 2\nvalue = [0, 1, 1]", fillcolor="#ffffff"] ;
384 -> 386 ;
387 [label="gini = 0.0\nsamples = 1\nvalue = [0, 0, 1]", fillcolor="#8139e5"] ;
386 -> 387 ;
388 [label="gini = 0.0\nsamples = 1\nvalue = [0, 1, 0]", fillcolor="#39e581"] ;
386 -> 388 ;
389 [label="gini = 0.0\nsamples = 1\nvalue = [0, 1, 0]", fillcolor="#39e581"] ;
383 -> 389 ;
390 [label=" C24 <= 0.5\ngini = 0.611\nsamples = 6\nvalue = [3, 1, 2]", fillcolor="#f8e0ce"] ;
382 -> 390 ;
391 [label=" C31 <= 0.5\ngini = 0.48\nsamples = 5\nvalue = [3, 0, 2]", fillcolor="#f6d5bd"] ;
390 -> 391 ;
392 [label=" C9 <= -0.5\ngini = 0.444\nsamples = 3\nvalue = [1, 0, 2]", fillcolor="#c09cf2"] ;
391 -> 392 ;
393 [label="gini = 0.0\nsamples = 1\nvalue = [1, 0, 0]", fillcolor="#e58139"] ;
392 -> 393 ;
394 [label="gini = 0.0\nsamples = 2\nvalue = [0, 0, 2]", fillcolor="#8139e5"] ;
392 -> 394 ;
395 [label="gini = 0.0\nsamples = 2\nvalue = [2, 0, 0]", fillcolor="#e58139"] ;
391 -> 395 ;
396 [label="gini = 0.0\nsamples = 1\nvalue = [0, 1, 0]", fillcolor="#39e581"] ;
390 -> 396 ;
397 [label=" C5 <= 0.5\ngini = 0.469\nsamples = 23\nvalue = [4, 16, 3]", fillcolor="#82efaf"] ;
371 -> 397 ;
398 [label=" C31 <= 0.5\ngini = 0.39\nsamples = 21\nvalue = [3, 16, 2]", fillcolor="#70eca4"] ;
397 -> 398 ;
399 [label="gini = 0.0\nsamples = 9\nvalue = [0, 9, 0]", fillcolor="#39e581"] ;
398 -> 399 ;
400 [label=" C9 <= -0.5\ngini = 0.569\nsamples = 12\nvalue = [3, 7, 2]", fillcolor="#a7f3c7"] ;
398 -> 400 ;
401 [label=" C10 <= -0.5\ngini = 0.444\nsamples = 3\nvalue = [0, 1, 2]", fillcolor="#c09cf2"] ;
400 -> 401 ;
402 [label="gini = 0.0\nsamples = 1\nvalue = [0, 1, 0]", fillcolor="#39e581"] ;
401 -> 402 ;
403 [label="gini = 0.0\nsamples = 2\nvalue = [0, 0, 2]", fillcolor="#8139e5"] ;
401 -> 403 ;
404 [label=" C10 <= -0.5\ngini = 0.444\nsamples = 9\nvalue = [3, 6, 0]", fillcolor="#9cf2c0"] ;
400 -> 404 ;
405 [label="gini = 0.0\nsamples = 1\nvalue = [1, 0, 0]", fillcolor="#e58139"] ;
404 -> 405 ;
406 [label=" C32 <= 0.5\ngini = 0.375\nsamples = 8\nvalue = [2, 6, 0]", fillcolor="#7beeab"] ;
404 -> 406 ;
407 [label=" C3 <= -0.5\ngini = 0.48\nsamples = 5\nvalue = [2, 3, 0]", fillcolor="#bdf6d5"] ;
406 -> 407 ;
408 [label="gini = 0.0\nsamples = 1\nvalue = [1, 0, 0]", fillcolor="#e58139"] ;
407 -> 408 ;
409 [label=" C8 <= -0.5\ngini = 0.375\nsamples = 4\nvalue = [1, 3, 0]", fillcolor="#7beeab"] ;
407 -> 409 ;
410 [label=" C3 <= 0.5\ngini = 0.5\nsamples = 2\nvalue = [1, 1, 0]", fillcolor="#ffffff"] ;
409 -> 410 ;
411 [label="gini = 0.0\nsamples = 1\nvalue = [0, 1, 0]", fillcolor="#39e581"] ;
410 -> 411 ;
412 [label="gini = 0.0\nsamples = 1\nvalue = [1, 0, 0]", fillcolor="#e58139"] ;
410 -> 412 ;
413 [label="gini = 0.0\nsamples = 2\nvalue = [0, 2, 0]", fillcolor="#39e581"] ;
409 -> 413 ;
414 [label="gini = 0.0\nsamples = 3\nvalue = [0, 3, 0]", fillcolor="#39e581"] ;
406 -> 414 ;
415 [label=" C31 <= 0.5\ngini = 0.5\nsamples = 2\nvalue = [1, 0, 1]", fillcolor="#ffffff"] ;
397 -> 415 ;
416 [label="gini = 0.0\nsamples = 1\nvalue = [1, 0, 0]", fillcolor="#e58139"] ;
415 -> 416 ;
417 [label="gini = 0.0\nsamples = 1\nvalue = [0, 0, 1]", fillcolor="#8139e5"] ;
415 -> 417 ;
418 [label="gini = 0.0\nsamples = 2\nvalue = [0, 0, 2]", fillcolor="#8139e5"] ;
340 -> 418 ;
419 [label=" C31 <= 0.5\ngini = 0.536\nsamples = 63\nvalue = [8, 16, 39]", fillcolor="#c19ef2"] ;
333 -> 419 ;
420 [label=" C3 <= 0.5\ngini = 0.546\nsamples = 37\nvalue = [2, 16, 19]", fillcolor="#ede3fb"] ;
419 -> 420 ;
421 [label=" C22 <= 0.5\ngini = 0.531\nsamples = 25\nvalue = [2, 15, 8]", fillcolor="#adf4cb"] ;
420 -> 421 ;
422 [label=" C10 <= 0.5\ngini = 0.381\nsamples = 17\nvalue = [1, 13, 3]", fillcolor="#72eca5"] ;
421 -> 422 ;
423 [label=" C27 <= -0.5\ngini = 0.32\nsamples = 16\nvalue = [1, 13, 2]", fillcolor="#63eb9c"] ;
422 -> 423 ;
424 [label=" C26 <= 0.0\ngini = 0.5\nsamples = 4\nvalue = [0, 2, 2]", fillcolor="#ffffff"] ;
423 -> 424 ;
425 [label="gini = 0.0\nsamples = 2\nvalue = [0, 0, 2]", fillcolor="#8139e5"] ;
424 -> 425 ;
426 [label="gini = 0.0\nsamples = 2\nvalue = [0, 2, 0]", fillcolor="#39e581"] ;
424 -> 426 ;
427 [label=" C26 <= 0.5\ngini = 0.153\nsamples = 12\nvalue = [1, 11, 0]", fillcolor="#4be78c"] ;
423 -> 427 ;
428 [label="gini = 0.0\nsamples = 10\nvalue = [0, 10, 0]", fillcolor="#39e581"] ;
427 -> 428 ;
429 [label=" C9 <= -0.5\ngini = 0.5\nsamples = 2\nvalue = [1, 1, 0]", fillcolor="#ffffff"] ;
427 -> 429 ;
430 [label="gini = 0.0\nsamples = 1\nvalue = [0, 1, 0]", fillcolor="#39e581"] ;
429 -> 430 ;
431 [label="gini = 0.0\nsamples = 1\nvalue = [1, 0, 0]", fillcolor="#e58139"] ;
429 -> 431 ;
432 [label="gini = 0.0\nsamples = 1\nvalue = [0, 0, 1]", fillcolor="#8139e5"] ;
422 -> 432 ;
433 [label=" C26 <= 0.5\ngini = 0.531\nsamples = 8\nvalue = [1, 2, 5]", fillcolor="#c09cf2"] ;
421 -> 433 ;
434 [label=" C27 <= 0.5\ngini = 0.408\nsamples = 7\nvalue = [0, 2, 5]", fillcolor="#b388ef"] ;
433 -> 434 ;
435 [label=" C24 <= -0.5\ngini = 0.278\nsamples = 6\nvalue = [0, 1, 5]", fillcolor="#9a61ea"] ;
434 -> 435 ;
436 [label="gini = 0.0\nsamples = 1\nvalue = [0, 1, 0]", fillcolor="#39e581"] ;
435 -> 436 ;
437 [label="gini = 0.0\nsamples = 5\nvalue = [0, 0, 5]", fillcolor="#8139e5"] ;
435 -> 437 ;
438 [label="gini = 0.0\nsamples = 1\nvalue = [0, 1, 0]", fillcolor="#39e581"] ;
434 -> 438 ;
439 [label="gini = 0.0\nsamples = 1\nvalue = [1, 0, 0]", fillcolor="#e58139"] ;
433 -> 439 ;
440 [label=" C27 <= 0.5\ngini = 0.153\nsamples = 12\nvalue = [0, 1, 11]", fillcolor="#8c4be7"] ;
420 -> 440 ;
441 [label="gini = 0.0\nsamples = 11\nvalue = [0, 0, 11]", fillcolor="#8139e5"] ;
440 -> 441 ;
442 [label="gini = 0.0\nsamples = 1\nvalue = [0, 1, 0]", fillcolor="#39e581"] ;
440 -> 442 ;
443 [label=" C2 <= -0.5\ngini = 0.355\nsamples = 26\nvalue = [6, 0, 20]", fillcolor="#a774ed"] ;
419 -> 443 ;
444 [label=" C7 <= 0.5\ngini = 0.486\nsamples = 12\nvalue = [5, 0, 7]", fillcolor="#dbc6f8"] ;
443 -> 444 ;
445 [label=" C26 <= 0.5\ngini = 0.494\nsamples = 9\nvalue = [5, 0, 4]", fillcolor="#fae6d7"] ;
444 -> 445 ;
446 [label=" C3 <= 0.5\ngini = 0.408\nsamples = 7\nvalue = [5, 0, 2]", fillcolor="#efb388"] ;
445 -> 446 ;
447 [label="gini = 0.0\nsamples = 5\nvalue = [5, 0, 0]", fillcolor="#e58139"] ;
446 -> 447 ;
448 [label="gini = 0.0\nsamples = 2\nvalue = [0, 0, 2]", fillcolor="#8139e5"] ;
446 -> 448 ;
449 [label="gini = 0.0\nsamples = 2\nvalue = [0, 0, 2]", fillcolor="#8139e5"] ;
445 -> 449 ;
450 [label="gini = 0.0\nsamples = 3\nvalue = [0, 0, 3]", fillcolor="#8139e5"] ;
444 -> 450 ;
451 [label=" C33 <= 0.5\ngini = 0.133\nsamples = 14\nvalue = [1, 0, 13]", fillcolor="#8b48e7"] ;
443 -> 451 ;
452 [label="gini = 0.0\nsamples = 12\nvalue = [0, 0, 12]", fillcolor="#8139e5"] ;
451 -> 452 ;
453 [label=" C34 <= -0.5\ngini = 0.5\nsamples = 2\nvalue = [1, 0, 1]", fillcolor="#ffffff"] ;
451 -> 453 ;
454 [label="gini = 0.0\nsamples = 1\nvalue = [0, 0, 1]", fillcolor="#8139e5"] ;
453 -> 454 ;
455 [label="gini = 0.0\nsamples = 1\nvalue = [1, 0, 0]", fillcolor="#e58139"] ;
453 -> 455 ;
456 [label=" C7 <= 0.5\ngini = 0.476\nsamples = 144\nvalue = [13, 33, 98]", fillcolor="#b58bf0"] ;
332 -> 456 ;
457 [label=" C21 <= -0.5\ngini = 0.575\nsamples = 82\nvalue = [9, 29, 44]", fillcolor="#dbc7f8"] ;
456 -> 457 ;
458 [label=" C24 <= -0.5\ngini = 0.398\nsamples = 32\nvalue = [2, 6, 24]", fillcolor="#a876ed"] ;
457 -> 458 ;
459 [label="gini = 0.0\nsamples = 1\nvalue = [0, 1, 0]", fillcolor="#39e581"] ;
458 -> 459 ;
460 [label=" C15 <= 0.5\ngini = 0.37\nsamples = 31\nvalue = [2, 5, 24]", fillcolor="#a36eec"] ;
458 -> 460 ;
461 [label=" C31 <= -0.5\ngini = 0.338\nsamples = 30\nvalue = [2, 4, 24]", fillcolor="#9e67eb"] ;
460 -> 461 ;
462 [label="gini = 0.0\nsamples = 1\nvalue = [0, 1, 0]", fillcolor="#39e581"] ;
461 -> 462 ;
463 [label=" C27 <= 0.5\ngini = 0.3\nsamples = 29\nvalue = [2, 3, 24]", fillcolor="#995fea"] ;
461 -> 463 ;
464 [label=" C23 <= -0.5\ngini = 0.255\nsamples = 28\nvalue = [2, 2, 24]", fillcolor="#9457e9"] ;
463 -> 464 ;
465 [label=" C25 <= 0.5\ngini = 0.5\nsamples = 2\nvalue = [1, 0, 1]", fillcolor="#ffffff"] ;
464 -> 465 ;
466 [label="gini = 0.0\nsamples = 1\nvalue = [1, 0, 0]", fillcolor="#e58139"] ;
465 -> 466 ;
467 [label="gini = 0.0\nsamples = 1\nvalue = [0, 0, 1]", fillcolor="#8139e5"] ;
465 -> 467 ;
468 [label=" C37 <= -0.5\ngini = 0.21\nsamples = 26\nvalue = [1, 2, 23]", fillcolor="#9152e8"] ;
464 -> 468 ;
469 [label=" C38 <= 0.5\ngini = 0.56\nsamples = 5\nvalue = [1, 1, 3]", fillcolor="#c09cf2"] ;
468 -> 469 ;
470 [label=" C22 <= 0.5\ngini = 0.5\nsamples = 2\nvalue = [1, 1, 0]", fillcolor="#ffffff"] ;
469 -> 470 ;
471 [label="gini = 0.0\nsamples = 1\nvalue = [0, 1, 0]", fillcolor="#39e581"] ;
470 -> 471 ;
472 [label="gini = 0.0\nsamples = 1\nvalue = [1, 0, 0]", fillcolor="#e58139"] ;
470 -> 472 ;
473 [label="gini = 0.0\nsamples = 3\nvalue = [0, 0, 3]", fillcolor="#8139e5"] ;
469 -> 473 ;
474 [label=" C22 <= 0.5\ngini = 0.091\nsamples = 21\nvalue = [0, 1, 20]", fillcolor="#8743e6"] ;
468 -> 474 ;
475 [label="gini = 0.0\nsamples = 15\nvalue = [0, 0, 15]", fillcolor="#8139e5"] ;
474 -> 475 ;
476 [label=" C31 <= 0.5\ngini = 0.278\nsamples = 6\nvalue = [0, 1, 5]", fillcolor="#9a61ea"] ;
474 -> 476 ;
477 [label="gini = 0.0\nsamples = 3\nvalue = [0, 0, 3]", fillcolor="#8139e5"] ;
476 -> 477 ;
478 [label=" C2 <= -0.5\ngini = 0.444\nsamples = 3\nvalue = [0, 1, 2]", fillcolor="#c09cf2"] ;
476 -> 478 ;
479 [label="gini = 0.0\nsamples = 1\nvalue = [0, 1, 0]", fillcolor="#39e581"] ;
478 -> 479 ;
480 [label="gini = 0.0\nsamples = 2\nvalue = [0, 0, 2]", fillcolor="#8139e5"] ;
478 -> 480 ;
481 [label="gini = 0.0\nsamples = 1\nvalue = [0, 1, 0]", fillcolor="#39e581"] ;
463 -> 481 ;
482 [label="gini = 0.0\nsamples = 1\nvalue = [0, 1, 0]", fillcolor="#39e581"] ;
460 -> 482 ;
483 [label=" C32 <= -0.5\ngini = 0.609\nsamples = 50\nvalue = [7, 23, 20]", fillcolor="#ebfcf2"] ;
457 -> 483 ;
484 [label=" C15 <= 0.5\ngini = 0.406\nsamples = 8\nvalue = [1, 1, 6]", fillcolor="#a572ec"] ;
483 -> 484 ;
485 [label=" C33 <= 0.5\ngini = 0.245\nsamples = 7\nvalue = [0, 1, 6]", fillcolor="#965ae9"] ;
484 -> 485 ;
486 [label="gini = 0.0\nsamples = 4\nvalue = [0, 0, 4]", fillcolor="#8139e5"] ;
485 -> 486 ;
487 [label=" C2 <= -0.5\ngini = 0.444\nsamples = 3\nvalue = [0, 1, 2]", fillcolor="#c09cf2"] ;
485 -> 487 ;
488 [label="gini = 0.0\nsamples = 1\nvalue = [0, 1, 0]", fillcolor="#39e581"] ;
487 -> 488 ;
489 [label="gini = 0.0\nsamples = 2\nvalue = [0, 0, 2]", fillcolor="#8139e5"] ;
487 -> 489 ;
490 [label="gini = 0.0\nsamples = 1\nvalue = [1, 0, 0]", fillcolor="#e58139"] ;
484 -> 490 ;
491 [label=" C26 <= -0.5\ngini = 0.594\nsamples = 42\nvalue = [6, 22, 14]", fillcolor="#c6f8db"] ;
483 -> 491 ;
492 [label=" C28 <= -0.5\ngini = 0.5\nsamples = 6\nvalue = [1, 1, 4]", fillcolor="#b388ef"] ;
491 -> 492 ;
493 [label="gini = 0.0\nsamples = 1\nvalue = [0, 1, 0]", fillcolor="#39e581"] ;
492 -> 493 ;
494 [label=" C14 <= -0.5\ngini = 0.32\nsamples = 5\nvalue = [1, 0, 4]", fillcolor="#a06aec"] ;
492 -> 494 ;
495 [label="gini = 0.0\nsamples = 1\nvalue = [1, 0, 0]", fillcolor="#e58139"] ;
494 -> 495 ;
496 [label="gini = 0.0\nsamples = 4\nvalue = [0, 0, 4]", fillcolor="#8139e5"] ;
494 -> 496 ;
497 [label=" C17 <= 0.5\ngini = 0.563\nsamples = 36\nvalue = [5, 21, 10]", fillcolor="#abf4ca"] ;
491 -> 497 ;
498 [label=" C3 <= 0.5\ngini = 0.545\nsamples = 35\nvalue = [4, 21, 10]", fillcolor="#a8f4c8"] ;
497 -> 498 ;
499 [label=" C40 <= 0.5\ngini = 0.434\nsamples = 22\nvalue = [0, 15, 7]", fillcolor="#95f1bc"] ;
498 -> 499 ;
500 [label=" C25 <= 0.5\ngini = 0.408\nsamples = 21\nvalue = [0, 15, 6]", fillcolor="#88efb3"] ;
499 -> 500 ;
501 [label=" C31 <= 0.5\ngini = 0.278\nsamples = 12\nvalue = [0, 10, 2]", fillcolor="#61ea9a"] ;
500 -> 501 ;
502 [label="gini = 0.0\nsamples = 1\nvalue = [0, 0, 1]", fillcolor="#8139e5"] ;
501 -> 502 ;
503 [label=" C38 <= 0.5\ngini = 0.165\nsamples = 11\nvalue = [0, 10, 1]", fillcolor="#4de88e"] ;
501 -> 503 ;
504 [label="gini = 0.0\nsamples = 8\nvalue = [0, 8, 0]", fillcolor="#39e581"] ;
503 -> 504 ;
505 [label=" C2 <= -0.5\ngini = 0.444\nsamples = 3\nvalue = [0, 2, 1]", fillcolor="#9cf2c0"] ;
503 -> 505 ;
506 [label="gini = 0.0\nsamples = 1\nvalue = [0, 0, 1]", fillcolor="#8139e5"] ;
505 -> 506 ;
507 [label="gini = 0.0\nsamples = 2\nvalue = [0, 2, 0]", fillcolor="#39e581"] ;
505 -> 507 ;
508 [label=" C31 <= 0.5\ngini = 0.494\nsamples = 9\nvalue = [0, 5, 4]", fillcolor="#d7fae6"] ;
500 -> 508 ;
509 [label=" C2 <= -0.5\ngini = 0.408\nsamples = 7\nvalue = [0, 5, 2]", fillcolor="#88efb3"] ;
508 -> 509 ;
510 [label="gini = 0.0\nsamples = 4\nvalue = [0, 4, 0]", fillcolor="#39e581"] ;
509 -> 510 ;
511 [label=" C37 <= -0.5\ngini = 0.444\nsamples = 3\nvalue = [0, 1, 2]", fillcolor="#c09cf2"] ;
509 -> 511 ;
512 [label="gini = 0.0\nsamples = 1\nvalue = [0, 1, 0]", fillcolor="#39e581"] ;
511 -> 512 ;
513 [label="gini = 0.0\nsamples = 2\nvalue = [0, 0, 2]", fillcolor="#8139e5"] ;
511 -> 513 ;
514 [label="gini = 0.0\nsamples = 2\nvalue = [0, 0, 2]", fillcolor="#8139e5"] ;
508 -> 514 ;
515 [label="gini = 0.0\nsamples = 1\nvalue = [0, 0, 1]", fillcolor="#8139e5"] ;
499 -> 515 ;
516 [label=" C37 <= -0.5\ngini = 0.639\nsamples = 13\nvalue = [4, 6, 3]", fillcolor="#d3f9e3"] ;
498 -> 516 ;
517 [label=" C25 <= 0.5\ngini = 0.375\nsamples = 4\nvalue = [3, 1, 0]", fillcolor="#eeab7b"] ;
516 -> 517 ;
518 [label="gini = 0.0\nsamples = 3\nvalue = [3, 0, 0]", fillcolor="#e58139"] ;
517 -> 518 ;
519 [label="gini = 0.0\nsamples = 1\nvalue = [0, 1, 0]", fillcolor="#39e581"] ;
517 -> 519 ;
520 [label=" C31 <= 0.5\ngini = 0.568\nsamples = 9\nvalue = [1, 5, 3]", fillcolor="#bdf6d5"] ;
516 -> 520 ;
521 [label=" C25 <= 0.5\ngini = 0.449\nsamples = 7\nvalue = [1, 5, 1]", fillcolor="#7beeab"] ;
520 -> 521 ;
522 [label=" C14 <= -0.5\ngini = 0.278\nsamples = 6\nvalue = [1, 5, 0]", fillcolor="#61ea9a"] ;
521 -> 522 ;
523 [label=" C15 <= 0.5\ngini = 0.5\nsamples = 2\nvalue = [1, 1, 0]", fillcolor="#ffffff"] ;
522 -> 523 ;
524 [label="gini = 0.0\nsamples = 1\nvalue = [1, 0, 0]", fillcolor="#e58139"] ;
523 -> 524 ;
525 [label="gini = 0.0\nsamples = 1\nvalue = [0, 1, 0]", fillcolor="#39e581"] ;
523 -> 525 ;
526 [label="gini = 0.0\nsamples = 4\nvalue = [0, 4, 0]", fillcolor="#39e581"] ;
522 -> 526 ;
527 [label="gini = 0.0\nsamples = 1\nvalue = [0, 0, 1]", fillcolor="#8139e5"] ;
521 -> 527 ;
528 [label="gini = 0.0\nsamples = 2\nvalue = [0, 0, 2]", fillcolor="#8139e5"] ;
520 -> 528 ;
529 [label="gini = 0.0\nsamples = 1\nvalue = [1, 0, 0]", fillcolor="#e58139"] ;
497 -> 529 ;
530 [label=" C38 <= -0.5\ngini = 0.233\nsamples = 62\nvalue = [4, 4, 54]", fillcolor="#9254e9"] ;
456 -> 530 ;
531 [label="gini = 0.0\nsamples = 1\nvalue = [0, 1, 0]", fillcolor="#39e581"] ;
530 -> 531 ;
532 [label=" C9 <= 0.5\ngini = 0.21\nsamples = 61\nvalue = [4, 3, 54]", fillcolor="#9051e8"] ;
530 -> 532 ;
533 [label=" C4 <= -0.5\ngini = 0.184\nsamples = 60\nvalue = [4, 2, 54]", fillcolor="#8e4ee8"] ;
532 -> 533 ;
534 [label="gini = 0.0\nsamples = 1\nvalue = [0, 1, 0]", fillcolor="#39e581"] ;
533 -> 534 ;
535 [label=" C15 <= 0.5\ngini = 0.157\nsamples = 59\nvalue = [4, 1, 54]", fillcolor="#8c4be7"] ;
533 -> 535 ;
536 [label=" C22 <= 0.5\ngini = 0.103\nsamples = 55\nvalue = [3, 0, 52]", fillcolor="#8844e6"] ;
535 -> 536 ;
537 [label=" C2 <= -0.5\ngini = 0.077\nsamples = 50\nvalue = [2, 0, 48]", fillcolor="#8641e6"] ;
536 -> 537 ;
538 [label=" C14 <= -0.5\ngini = 0.231\nsamples = 15\nvalue = [2, 0, 13]", fillcolor="#9457e9"] ;
537 -> 538 ;
539 [label=" C25 <= 0.5\ngini = 0.5\nsamples = 2\nvalue = [1, 0, 1]", fillcolor="#ffffff"] ;
538 -> 539 ;
540 [label="gini = 0.0\nsamples = 1\nvalue = [1, 0, 0]", fillcolor="#e58139"] ;
539 -> 540 ;
541 [label="gini = 0.0\nsamples = 1\nvalue = [0, 0, 1]", fillcolor="#8139e5"] ;
539 -> 541 ;
542 [label=" C31 <= 0.5\ngini = 0.142\nsamples = 13\nvalue = [1, 0, 12]", fillcolor="#8c49e7"] ;
538 -> 542 ;
543 [label="gini = 0.0\nsamples = 9\nvalue = [0, 0, 9]", fillcolor="#8139e5"] ;
542 -> 543 ;
544 [label=" C37 <= -0.5\ngini = 0.375\nsamples = 4\nvalue = [1, 0, 3]", fillcolor="#ab7bee"] ;
542 -> 544 ;
545 [label="gini = 0.0\nsamples = 1\nvalue = [1, 0, 0]", fillcolor="#e58139"] ;
544 -> 545 ;
546 [label="gini = 0.0\nsamples = 3\nvalue = [0, 0, 3]", fillcolor="#8139e5"] ;
544 -> 546 ;
547 [label="gini = 0.0\nsamples = 35\nvalue = [0, 0, 35]", fillcolor="#8139e5"] ;
537 -> 547 ;
548 [label=" C37 <= -0.5\ngini = 0.32\nsamples = 5\nvalue = [1, 0, 4]", fillcolor="#a06aec"] ;
536 -> 548 ;
549 [label="gini = 0.0\nsamples = 1\nvalue = [1, 0, 0]", fillcolor="#e58139"] ;
548 -> 549 ;
550 [label="gini = 0.0\nsamples = 4\nvalue = [0, 0, 4]", fillcolor="#8139e5"] ;
548 -> 550 ;
551 [label=" C2 <= -0.5\ngini = 0.625\nsamples = 4\nvalue = [1, 1, 2]", fillcolor="#d5bdf6"] ;
535 -> 551 ;
552 [label="gini = 0.0\nsamples = 1\nvalue = [0, 1, 0]", fillcolor="#39e581"] ;
551 -> 552 ;
553 [label=" C37 <= -0.5\ngini = 0.444\nsamples = 3\nvalue = [1, 0, 2]", fillcolor="#c09cf2"] ;
551 -> 553 ;
554 [label="gini = 0.0\nsamples = 1\nvalue = [1, 0, 0]", fillcolor="#e58139"] ;
553 -> 554 ;
555 [label="gini = 0.0\nsamples = 2\nvalue = [0, 0, 2]", fillcolor="#8139e5"] ;
553 -> 555 ;
556 [label="gini = 0.0\nsamples = 1\nvalue = [0, 1, 0]", fillcolor="#39e581"] ;
532 -> 556 ;
557 [label=" C31 <= 0.5\ngini = 0.602\nsamples = 2164\nvalue = [299, 801, 1064]", fillcolor="#e7d9fa"] ;
23 -> 557 ;
558 [label=" C14 <= -0.5\ngini = 0.61\nsamples = 1014\nvalue = [142, 451, 421]", fillcolor="#f5fef9"] ;
557 -> 558 ;
559 [label=" C15 <= 0.5\ngini = 0.584\nsamples = 201\nvalue = [32, 57, 112]", fillcolor="#cfb3f5"] ;
558 -> 559 ;
560 [label=" C27 <= 0.5\ngini = 0.41\nsamples = 91\nvalue = [12, 11, 68]", fillcolor="#a673ed"] ;
559 -> 560 ;
561 [label=" C5 <= -0.5\ngini = 0.38\nsamples = 87\nvalue = [11, 9, 67]", fillcolor="#a26dec"] ;
560 -> 561 ;
562 [label=" C6 <= 0.5\ngini = 0.444\nsamples = 3\nvalue = [2, 0, 1]", fillcolor="#f2c09c"] ;
561 -> 562 ;
563 [label="gini = 0.0\nsamples = 2\nvalue = [2, 0, 0]", fillcolor="#e58139"] ;
562 -> 563 ;
564 [label="gini = 0.0\nsamples = 1\nvalue = [0, 0, 1]", fillcolor="#8139e5"] ;
562 -> 564 ;
565 [label=" C37 <= -0.5\ngini = 0.36\nsamples = 84\nvalue = [9, 9, 66]", fillcolor="#9f69eb"] ;
561 -> 565 ;
566 [label=" C26 <= 0.5\ngini = 0.49\nsamples = 34\nvalue = [5, 6, 23]", fillcolor="#b287ef"] ;
565 -> 566 ;
567 [label=" C9 <= 0.5\ngini = 0.282\nsamples = 25\nvalue = [2, 2, 21]", fillcolor="#975bea"] ;
566 -> 567 ;
568 [label=" C2 <= -0.5\ngini = 0.163\nsamples = 23\nvalue = [1, 1, 21]", fillcolor="#8c4be7"] ;
567 -> 568 ;
569 [label=" C8 <= 0.5\ngini = 0.406\nsamples = 8\nvalue = [1, 1, 6]", fillcolor="#a572ec"] ;
568 -> 569 ;
570 [label=" C25 <= 0.5\ngini = 0.278\nsamples = 6\nvalue = [0, 1, 5]", fillcolor="#9a61ea"] ;
569 -> 570 ;
571 [label="gini = 0.0\nsamples = 4\nvalue = [0, 0, 4]", fillcolor="#8139e5"] ;
570 -> 571 ;
572 [label=" C39 <= 0.5\ngini = 0.5\nsamples = 2\nvalue = [0, 1, 1]", fillcolor="#ffffff"] ;
570 -> 572 ;
573 [label="gini = 0.0\nsamples = 1\nvalue = [0, 0, 1]", fillcolor="#8139e5"] ;
572 -> 573 ;
574 [label="gini = 0.0\nsamples = 1\nvalue = [0, 1, 0]", fillcolor="#39e581"] ;
572 -> 574 ;
575 [label=" C3 <= 0.5\ngini = 0.5\nsamples = 2\nvalue = [1, 0, 1]", fillcolor="#ffffff"] ;
569 -> 575 ;
576 [label="gini = 0.0\nsamples = 1\nvalue = [0, 0, 1]", fillcolor="#8139e5"] ;
575 -> 576 ;
577 [label="gini = 0.0\nsamples = 1\nvalue = [1, 0, 0]", fillcolor="#e58139"] ;
575 -> 577 ;
578 [label="gini = 0.0\nsamples = 15\nvalue = [0, 0, 15]", fillcolor="#8139e5"] ;
568 -> 578 ;
579 [label=" C38 <= 0.5\ngini = 0.5\nsamples = 2\nvalue = [1, 1, 0]", fillcolor="#ffffff"] ;
567 -> 579 ;
580 [label="gini = 0.0\nsamples = 1\nvalue = [1, 0, 0]", fillcolor="#e58139"] ;
579 -> 580 ;
581 [label="gini = 0.0\nsamples = 1\nvalue = [0, 1, 0]", fillcolor="#39e581"] ;
579 -> 581 ;
582 [label=" C13 <= 0.0\ngini = 0.642\nsamples = 9\nvalue = [3, 4, 2]", fillcolor="#defbea"] ;
566 -> 582 ;
583 [label=" C38 <= 0.5\ngini = 0.444\nsamples = 3\nvalue = [1, 0, 2]", fillcolor="#c09cf2"] ;
582 -> 583 ;
584 [label="gini = 0.0\nsamples = 1\nvalue = [1, 0, 0]", fillcolor="#e58139"] ;
583 -> 584 ;
585 [label="gini = 0.0\nsamples = 2\nvalue = [0, 0, 2]", fillcolor="#8139e5"] ;
583 -> 585 ;
586 [label=" C7 <= -0.5\ngini = 0.444\nsamples = 6\nvalue = [2, 4, 0]", fillcolor="#9cf2c0"] ;
582 -> 586 ;
587 [label="gini = 0.0\nsamples = 1\nvalue = [1, 0, 0]", fillcolor="#e58139"] ;
586 -> 587 ;
588 [label=" C27 <= -0.5\ngini = 0.32\nsamples = 5\nvalue = [1, 4, 0]", fillcolor="#6aeca0"] ;
586 -> 588 ;
589 [label=" C28 <= 0.5\ngini = 0.5\nsamples = 2\nvalue = [1, 1, 0]", fillcolor="#ffffff"] ;
588 -> 589 ;
590 [label="gini = 0.0\nsamples = 1\nvalue = [1, 0, 0]", fillcolor="#e58139"] ;
589 -> 590 ;
591 [label="gini = 0.0\nsamples = 1\nvalue = [0, 1, 0]", fillcolor="#39e581"] ;
589 -> 591 ;
592 [label="gini = 0.0\nsamples = 3\nvalue = [0, 3, 0]", fillcolor="#39e581"] ;
588 -> 592 ;
593 [label=" C8 <= -0.5\ngini = 0.25\nsamples = 50\nvalue = [4, 3, 43]", fillcolor="#9457e9"] ;
565 -> 593 ;
594 [label=" C10 <= -0.5\ngini = 0.531\nsamples = 8\nvalue = [2, 1, 5]", fillcolor="#c09cf2"] ;
593 -> 594 ;
595 [label="gini = 0.0\nsamples = 1\nvalue = [1, 0, 0]", fillcolor="#e58139"] ;
594 -> 595 ;
596 [label=" C2 <= -0.5\ngini = 0.449\nsamples = 7\nvalue = [1, 1, 5]", fillcolor="#ab7bee"] ;
594 -> 596 ;
597 [label=" C4 <= 0.5\ngini = 0.667\nsamples = 3\nvalue = [1, 1, 1]", fillcolor="#ffffff"] ;
596 -> 597 ;
598 [label=" C3 <= 0.5\ngini = 0.5\nsamples = 2\nvalue = [1, 1, 0]", fillcolor="#ffffff"] ;
597 -> 598 ;
599 [label="gini = 0.0\nsamples = 1\nvalue = [0, 1, 0]", fillcolor="#39e581"] ;
598 -> 599 ;
600 [label="gini = 0.0\nsamples = 1\nvalue = [1, 0, 0]", fillcolor="#e58139"] ;
598 -> 600 ;
601 [label="gini = 0.0\nsamples = 1\nvalue = [0, 0, 1]", fillcolor="#8139e5"] ;
597 -> 601 ;
602 [label="gini = 0.0\nsamples = 4\nvalue = [0, 0, 4]", fillcolor="#8139e5"] ;
596 -> 602 ;
603 [label=" C3 <= -0.5\ngini = 0.177\nsamples = 42\nvalue = [2, 2, 38]", fillcolor="#8e4de8"] ;
593 -> 603 ;
604 [label=" C25 <= 0.5\ngini = 0.5\nsamples = 2\nvalue = [0, 1, 1]", fillcolor="#ffffff"] ;
603 -> 604 ;
605 [label="gini = 0.0\nsamples = 1\nvalue = [0, 0, 1]", fillcolor="#8139e5"] ;
604 -> 605 ;
606 [label="gini = 0.0\nsamples = 1\nvalue = [0, 1, 0]", fillcolor="#39e581"] ;
604 -> 606 ;
607 [label=" C32 <= 0.5\ngini = 0.141\nsamples = 40\nvalue = [2, 1, 37]", fillcolor="#8b49e7"] ;
603 -> 607 ;
608 [label=" C4 <= -0.5\ngini = 0.059\nsamples = 33\nvalue = [1, 0, 32]", fillcolor="#853fe6"] ;
607 -> 608 ;
609 [label=" C8 <= 0.5\ngini = 0.375\nsamples = 4\nvalue = [1, 0, 3]", fillcolor="#ab7bee"] ;
608 -> 609 ;
610 [label="gini = 0.0\nsamples = 3\nvalue = [0, 0, 3]", fillcolor="#8139e5"] ;
609 -> 610 ;
611 [label="gini = 0.0\nsamples = 1\nvalue = [1, 0, 0]", fillcolor="#e58139"] ;
609 -> 611 ;
612 [label="gini = 0.0\nsamples = 29\nvalue = [0, 0, 29]", fillcolor="#8139e5"] ;
608 -> 612 ;
613 [label=" C9 <= 0.5\ngini = 0.449\nsamples = 7\nvalue = [1, 1, 5]", fillcolor="#ab7bee"] ;
607 -> 613 ;
614 [label=" C26 <= 0.5\ngini = 0.278\nsamples = 6\nvalue = [1, 0, 5]", fillcolor="#9a61ea"] ;
613 -> 614 ;
615 [label=" C8 <= 0.5\ngini = 0.444\nsamples = 3\nvalue = [1, 0, 2]", fillcolor="#c09cf2"] ;
614 -> 615 ;
616 [label="gini = 0.0\nsamples = 1\nvalue = [1, 0, 0]", fillcolor="#e58139"] ;
615 -> 616 ;
617 [label="gini = 0.0\nsamples = 2\nvalue = [0, 0, 2]", fillcolor="#8139e5"] ;
615 -> 617 ;
618 [label="gini = 0.0\nsamples = 3\nvalue = [0, 0, 3]", fillcolor="#8139e5"] ;
614 -> 618 ;
619 [label="gini = 0.0\nsamples = 1\nvalue = [0, 1, 0]", fillcolor="#39e581"] ;
613 -> 619 ;
620 [label=" C2 <= -0.5\ngini = 0.625\nsamples = 4\nvalue = [1, 2, 1]", fillcolor="#bdf6d5"] ;
560 -> 620 ;
621 [label="gini = 0.0\nsamples = 2\nvalue = [0, 2, 0]", fillcolor="#39e581"] ;
620 -> 621 ;
622 [label=" C26 <= 0.0\ngini = 0.5\nsamples = 2\nvalue = [1, 0, 1]", fillcolor="#ffffff"] ;
620 -> 622 ;
623 [label="gini = 0.0\nsamples = 1\nvalue = [1, 0, 0]", fillcolor="#e58139"] ;
622 -> 623 ;
624 [label="gini = 0.0\nsamples = 1\nvalue = [0, 0, 1]", fillcolor="#8139e5"] ;
622 -> 624 ;
625 [label=" C3 <= 0.5\ngini = 0.632\nsamples = 110\nvalue = [20, 46, 44]", fillcolor="#f9fefb"] ;
559 -> 625 ;
626 [label=" C16 <= -0.5\ngini = 0.619\nsamples = 91\nvalue = [17, 45, 29]", fillcolor="#ccf8de"] ;
625 -> 626 ;
627 [label=" C26 <= 0.5\ngini = 0.599\nsamples = 33\nvalue = [7, 8, 18]", fillcolor="#cdb0f5"] ;
626 -> 627 ;
628 [label=" C8 <= -0.5\ngini = 0.52\nsamples = 28\nvalue = [6, 4, 18]", fillcolor="#ba93f1"] ;
627 -> 628 ;
629 [label="gini = 0.0\nsamples = 2\nvalue = [2, 0, 0]", fillcolor="#e58139"] ;
628 -> 629 ;
630 [label=" C18 <= -0.5\ngini = 0.473\nsamples = 26\nvalue = [4, 4, 18]", fillcolor="#af81ee"] ;
628 -> 630 ;
631 [label=" C7 <= 0.5\ngini = 0.5\nsamples = 2\nvalue = [1, 1, 0]", fillcolor="#ffffff"] ;
630 -> 631 ;
632 [label="gini = 0.0\nsamples = 1\nvalue = [0, 1, 0]", fillcolor="#39e581"] ;
631 -> 632 ;
633 [label="gini = 0.0\nsamples = 1\nvalue = [1, 0, 0]", fillcolor="#e58139"] ;
631 -> 633 ;
634 [label=" C8 <= 0.5\ngini = 0.406\nsamples = 24\nvalue = [3, 3, 18]", fillcolor="#a572ec"] ;
630 -> 634 ;
635 [label=" C37 <= -0.5\ngini = 0.208\nsamples = 17\nvalue = [0, 2, 15]", fillcolor="#9253e8"] ;
634 -> 635 ;
636 [label=" C25 <= 0.5\ngini = 0.408\nsamples = 7\nvalue = [0, 2, 5]", fillcolor="#b388ef"] ;
635 -> 636 ;
637 [label="gini = 0.0\nsamples = 5\nvalue = [0, 0, 5]", fillcolor="#8139e5"] ;
636 -> 637 ;
638 [label="gini = 0.0\nsamples = 2\nvalue = [0, 2, 0]", fillcolor="#39e581"] ;
636 -> 638 ;
639 [label="gini = 0.0\nsamples = 10\nvalue = [0, 0, 10]", fillcolor="#8139e5"] ;
635 -> 639 ;
640 [label=" C17 <= 0.5\ngini = 0.612\nsamples = 7\nvalue = [3, 1, 3]", fillcolor="#ffffff"] ;
634 -> 640 ;
641 [label=" C9 <= 0.5\ngini = 0.56\nsamples = 5\nvalue = [1, 1, 3]", fillcolor="#c09cf2"] ;
640 -> 641 ;
642 [label=" C2 <= -0.5\ngini = 0.375\nsamples = 4\nvalue = [1, 0, 3]", fillcolor="#ab7bee"] ;
641 -> 642 ;
643 [label="gini = 0.0\nsamples = 1\nvalue = [1, 0, 0]", fillcolor="#e58139"] ;
642 -> 643 ;
644 [label="gini = 0.0\nsamples = 3\nvalue = [0, 0, 3]", fillcolor="#8139e5"] ;
642 -> 644 ;
645 [label="gini = 0.0\nsamples = 1\nvalue = [0, 1, 0]", fillcolor="#39e581"] ;
641 -> 645 ;
646 [label="gini = 0.0\nsamples = 2\nvalue = [2, 0, 0]", fillcolor="#e58139"] ;
640 -> 646 ;
647 [label=" C17 <= 0.5\ngini = 0.32\nsamples = 5\nvalue = [1, 4, 0]", fillcolor="#6aeca0"] ;
627 -> 647 ;
648 [label="gini = 0.0\nsamples = 4\nvalue = [0, 4, 0]", fillcolor="#39e581"] ;
647 -> 648 ;
649 [label="gini = 0.0\nsamples = 1\nvalue = [1, 0, 0]", fillcolor="#e58139"] ;
647 -> 649 ;
650 [label=" C26 <= -0.5\ngini = 0.527\nsamples = 58\nvalue = [10, 37, 11]", fillcolor="#91f1b9"] ;
626 -> 650 ;
651 [label=" C2 <= -0.5\ngini = 0.408\nsamples = 7\nvalue = [0, 2, 5]", fillcolor="#b388ef"] ;
650 -> 651 ;
652 [label="gini = 0.0\nsamples = 1\nvalue = [0, 1, 0]", fillcolor="#39e581"] ;
651 -> 652 ;
653 [label=" C7 <= 0.5\ngini = 0.278\nsamples = 6\nvalue = [0, 1, 5]", fillcolor="#9a61ea"] ;
651 -> 653 ;
654 [label="gini = 0.0\nsamples = 4\nvalue = [0, 0, 4]", fillcolor="#8139e5"] ;
653 -> 654 ;
655 [label=" C8 <= 0.5\ngini = 0.5\nsamples = 2\nvalue = [0, 1, 1]", fillcolor="#ffffff"] ;
653 -> 655 ;
656 [label="gini = 0.0\nsamples = 1\nvalue = [0, 1, 0]", fillcolor="#39e581"] ;
655 -> 656 ;
657 [label="gini = 0.0\nsamples = 1\nvalue = [0, 0, 1]", fillcolor="#8139e5"] ;
655 -> 657 ;
658 [label=" C39 <= -0.5\ngini = 0.477\nsamples = 51\nvalue = [10, 35, 6]", fillcolor="#86efb2"] ;
650 -> 658 ;
659 [label="gini = 0.0\nsamples = 2\nvalue = [2, 0, 0]", fillcolor="#e58139"] ;
658 -> 659 ;
660 [label=" C28 <= -0.5\ngini = 0.448\nsamples = 49\nvalue = [8, 35, 6]", fillcolor="#7deeac"] ;
658 -> 660 ;
661 [label="gini = 0.0\nsamples = 1\nvalue = [0, 0, 1]", fillcolor="#8139e5"] ;
660 -> 661 ;
662 [label=" C40 <= -0.5\ngini = 0.43\nsamples = 48\nvalue = [8, 35, 5]", fillcolor="#79edaa"] ;
660 -> 662 ;
663 [label="gini = 0.0\nsamples = 1\nvalue = [0, 0, 1]", fillcolor="#8139e5"] ;
662 -> 663 ;
664 [label=" C9 <= -0.5\ngini = 0.409\nsamples = 47\nvalue = [8, 35, 4]", fillcolor="#76eda8"] ;
662 -> 664 ;
665 [label=" C10 <= 0.5\ngini = 0.64\nsamples = 5\nvalue = [1, 2, 2]", fillcolor="#ffffff"] ;
664 -> 665 ;
666 [label=" C37 <= -0.5\ngini = 0.444\nsamples = 3\nvalue = [1, 0, 2]", fillcolor="#c09cf2"] ;
665 -> 666 ;
667 [label="gini = 0.0\nsamples = 1\nvalue = [1, 0, 0]", fillcolor="#e58139"] ;
666 -> 667 ;
668 [label="gini = 0.0\nsamples = 2\nvalue = [0, 0, 2]", fillcolor="#8139e5"] ;
666 -> 668 ;
669 [label="gini = 0.0\nsamples = 2\nvalue = [0, 2, 0]", fillcolor="#39e581"] ;
665 -> 669 ;
670 [label=" C7 <= 0.5\ngini = 0.353\nsamples = 42\nvalue = [7, 33, 2]", fillcolor="#6ceca1"] ;
664 -> 670 ;
671 [label=" C31 <= -0.5\ngini = 0.254\nsamples = 21\nvalue = [1, 18, 2]", fillcolor="#58e995"] ;
670 -> 671 ;
672 [label=" C7 <= -0.5\ngini = 0.56\nsamples = 5\nvalue = [1, 3, 1]", fillcolor="#9cf2c0"] ;
671 -> 672 ;
673 [label=" C32 <= 0.5\ngini = 0.375\nsamples = 4\nvalue = [0, 3, 1]", fillcolor="#7beeab"] ;
672 -> 673 ;
674 [label=" C25 <= 0.5\ngini = 0.5\nsamples = 2\nvalue = [0, 1, 1]", fillcolor="#ffffff"] ;
673 -> 674 ;
675 [label="gini = 0.0\nsamples = 1\nvalue = [0, 1, 0]", fillcolor="#39e581"] ;
674 -> 675 ;
676 [label="gini = 0.0\nsamples = 1\nvalue = [0, 0, 1]", fillcolor="#8139e5"] ;
674 -> 676 ;
677 [label="gini = 0.0\nsamples = 2\nvalue = [0, 2, 0]", fillcolor="#39e581"] ;
673 -> 677 ;
678 [label="gini = 0.0\nsamples = 1\nvalue = [1, 0, 0]", fillcolor="#e58139"] ;
672 -> 678 ;
679 [label=" C38 <= 0.5\ngini = 0.117\nsamples = 16\nvalue = [0, 15, 1]", fillcolor="#46e789"] ;
671 -> 679 ;
680 [label="gini = 0.0\nsamples = 9\nvalue = [0, 9, 0]", fillcolor="#39e581"] ;
679 -> 680 ;
681 [label=" C7 <= -0.5\ngini = 0.245\nsamples = 7\nvalue = [0, 6, 1]", fillcolor="#5ae996"] ;
679 -> 681 ;
682 [label=" C25 <= 0.5\ngini = 0.444\nsamples = 3\nvalue = [0, 2, 1]", fillcolor="#9cf2c0"] ;
681 -> 682 ;
683 [label="gini = 0.0\nsamples = 2\nvalue = [0, 2, 0]", fillcolor="#39e581"] ;
682 -> 683 ;
684 [label="gini = 0.0\nsamples = 1\nvalue = [0, 0, 1]", fillcolor="#8139e5"] ;
682 -> 684 ;
685 [label="gini = 0.0\nsamples = 4\nvalue = [0, 4, 0]", fillcolor="#39e581"] ;
681 -> 685 ;
686 [label=" C8 <= 0.5\ngini = 0.408\nsamples = 21\nvalue = [6, 15, 0]", fillcolor="#88efb3"] ;
670 -> 686 ;
687 [label=" C13 <= 0.0\ngini = 0.48\nsamples = 15\nvalue = [6, 9, 0]", fillcolor="#bdf6d5"] ;
686 -> 687 ;
688 [label=" C27 <= -0.5\ngini = 0.346\nsamples = 9\nvalue = [2, 7, 0]", fillcolor="#72eca5"] ;
687 -> 688 ;
689 [label="gini = 0.0\nsamples = 1\nvalue = [1, 0, 0]", fillcolor="#e58139"] ;
688 -> 689 ;
690 [label=" C38 <= 0.5\ngini = 0.219\nsamples = 8\nvalue = [1, 7, 0]", fillcolor="#55e993"] ;
688 -> 690 ;
691 [label="gini = 0.0\nsamples = 6\nvalue = [0, 6, 0]", fillcolor="#39e581"] ;
690 -> 691 ;
692 [label=" C25 <= 0.5\ngini = 0.5\nsamples = 2\nvalue = [1, 1, 0]", fillcolor="#ffffff"] ;
690 -> 692 ;
693 [label="gini = 0.0\nsamples = 1\nvalue = [0, 1, 0]", fillcolor="#39e581"] ;
692 -> 693 ;
694 [label="gini = 0.0\nsamples = 1\nvalue = [1, 0, 0]", fillcolor="#e58139"] ;
692 -> 694 ;
695 [label=" C39 <= 0.5\ngini = 0.444\nsamples = 6\nvalue = [4, 2, 0]", fillcolor="#f2c09c"] ;
687 -> 695 ;
696 [label=" C9 <= 0.5\ngini = 0.32\nsamples = 5\nvalue = [4, 1, 0]", fillcolor="#eca06a"] ;
695 -> 696 ;
697 [label="gini = 0.0\nsamples = 3\nvalue = [3, 0, 0]", fillcolor="#e58139"] ;
696 -> 697 ;
698 [label=" C37 <= -0.5\ngini = 0.5\nsamples = 2\nvalue = [1, 1, 0]", fillcolor="#ffffff"] ;
696 -> 698 ;
699 [label="gini = 0.0\nsamples = 1\nvalue = [0, 1, 0]", fillcolor="#39e581"] ;
698 -> 699 ;
700 [label="gini = 0.0\nsamples = 1\nvalue = [1, 0, 0]", fillcolor="#e58139"] ;
698 -> 700 ;
701 [label="gini = 0.0\nsamples = 1\nvalue = [0, 1, 0]", fillcolor="#39e581"] ;
695 -> 701 ;
702 [label="gini = 0.0\nsamples = 6\nvalue = [0, 6, 0]", fillcolor="#39e581"] ;
686 -> 702 ;
703 [label=" C4 <= 0.5\ngini = 0.349\nsamples = 19\nvalue = [3, 1, 15]", fillcolor="#a06aec"] ;
625 -> 703 ;
704 [label=" C8 <= 0.5\ngini = 0.142\nsamples = 13\nvalue = [0, 1, 12]", fillcolor="#8c49e7"] ;
703 -> 704 ;
705 [label="gini = 0.0\nsamples = 12\nvalue = [0, 0, 12]", fillcolor="#8139e5"] ;
704 -> 705 ;
706 [label="gini = 0.0\nsamples = 1\nvalue = [0, 1, 0]", fillcolor="#39e581"] ;
704 -> 706 ;
707 [label=" C5 <= -0.5\ngini = 0.5\nsamples = 6\nvalue = [3, 0, 3]", fillcolor="#ffffff"] ;
703 -> 707 ;
708 [label="gini = 0.0\nsamples = 1\nvalue = [0, 0, 1]", fillcolor="#8139e5"] ;
707 -> 708 ;
709 [label=" C16 <= -0.5\ngini = 0.48\nsamples = 5\nvalue = [3, 0, 2]", fillcolor="#f6d5bd"] ;
707 -> 709 ;
710 [label="gini = 0.0\nsamples = 1\nvalue = [0, 0, 1]", fillcolor="#8139e5"] ;
709 -> 710 ;
711 [label=" C25 <= 0.5\ngini = 0.375\nsamples = 4\nvalue = [3, 0, 1]", fillcolor="#eeab7b"] ;
709 -> 711 ;
712 [label="gini = 0.0\nsamples = 3\nvalue = [3, 0, 0]", fillcolor="#e58139"] ;
711 -> 712 ;
713 [label="gini = 0.0\nsamples = 1\nvalue = [0, 0, 1]", fillcolor="#8139e5"] ;
711 -> 713 ;
714 [label=" C39 <= 0.5\ngini = 0.602\nsamples = 813\nvalue = [110, 394, 309]", fillcolor="#defbea"] ;
558 -> 714 ;
715 [label=" C29 <= 0.5\ngini = 0.597\nsamples = 723\nvalue = [101, 371, 251]", fillcolor="#cdf8df"] ;
714 -> 715 ;
716 [label=" C10 <= -0.5\ngini = 0.591\nsamples = 696\nvalue = [98, 369, 229]", fillcolor="#c4f7d9"] ;
715 -> 716 ;
717 [label=" C12 <= -0.5\ngini = 0.597\nsamples = 79\nvalue = [15, 21, 43]", fillcolor="#cfb4f5"] ;
716 -> 717 ;
718 [label="gini = 0.0\nsamples = 3\nvalue = [0, 3, 0]", fillcolor="#39e581"] ;
717 -> 718 ;
719 [label=" C37 <= -0.5\ngini = 0.585\nsamples = 76\nvalue = [15, 18, 43]", fillcolor="#c9aaf4"] ;
717 -> 719 ;
720 [label=" C9 <= 0.0\ngini = 0.635\nsamples = 21\nvalue = [4, 9, 8]", fillcolor="#f0fdf5"] ;
719 -> 720 ;
721 [label="gini = 0.0\nsamples = 3\nvalue = [0, 3, 0]", fillcolor="#39e581"] ;
720 -> 721 ;
722 [label=" C38 <= 0.5\ngini = 0.642\nsamples = 18\nvalue = [4, 6, 8]", fillcolor="#eadefb"] ;
720 -> 722 ;
723 [label=" C12 <= 0.5\ngini = 0.658\nsamples = 15\nvalue = [4, 6, 5]", fillcolor="#ebfcf2"] ;
722 -> 723 ;
724 [label=" C13 <= 0.5\ngini = 0.639\nsamples = 13\nvalue = [4, 6, 3]", fillcolor="#d3f9e3"] ;
723 -> 724 ;
725 [label=" C2 <= -0.5\ngini = 0.531\nsamples = 8\nvalue = [2, 5, 1]", fillcolor="#9cf2c0"] ;
724 -> 725 ;
726 [label=" C11 <= 0.5\ngini = 0.444\nsamples = 3\nvalue = [2, 1, 0]", fillcolor="#f2c09c"] ;
725 -> 726 ;
727 [label="gini = 0.0\nsamples = 2\nvalue = [2, 0, 0]", fillcolor="#e58139"] ;
726 -> 727 ;
728 [label="gini = 0.0\nsamples = 1\nvalue = [0, 1, 0]", fillcolor="#39e581"] ;
726 -> 728 ;
729 [label=" C7 <= 0.0\ngini = 0.32\nsamples = 5\nvalue = [0, 4, 1]", fillcolor="#6aeca0"] ;
725 -> 729 ;
730 [label=" C26 <= 0.5\ngini = 0.5\nsamples = 2\nvalue = [0, 1, 1]", fillcolor="#ffffff"] ;
729 -> 730 ;
731 [label="gini = 0.0\nsamples = 1\nvalue = [0, 0, 1]", fillcolor="#8139e5"] ;
730 -> 731 ;
732 [label="gini = 0.0\nsamples = 1\nvalue = [0, 1, 0]", fillcolor="#39e581"] ;
730 -> 732 ;
733 [label="gini = 0.0\nsamples = 3\nvalue = [0, 3, 0]", fillcolor="#39e581"] ;
729 -> 733 ;
734 [label=" C11 <= 0.5\ngini = 0.64\nsamples = 5\nvalue = [2, 1, 2]", fillcolor="#ffffff"] ;
724 -> 734 ;
735 [label=" C7 <= 0.0\ngini = 0.444\nsamples = 3\nvalue = [1, 0, 2]", fillcolor="#c09cf2"] ;
734 -> 735 ;
736 [label="gini = 0.0\nsamples = 1\nvalue = [1, 0, 0]", fillcolor="#e58139"] ;
735 -> 736 ;
737 [label="gini = 0.0\nsamples = 2\nvalue = [0, 0, 2]", fillcolor="#8139e5"] ;
735 -> 737 ;
738 [label=" C8 <= 0.0\ngini = 0.5\nsamples = 2\nvalue = [1, 1, 0]", fillcolor="#ffffff"] ;
734 -> 738 ;
739 [label="gini = 0.0\nsamples = 1\nvalue = [1, 0, 0]", fillcolor="#e58139"] ;
738 -> 739 ;
740 [label="gini = 0.0\nsamples = 1\nvalue = [0, 1, 0]", fillcolor="#39e581"] ;
738 -> 740 ;
741 [label="gini = 0.0\nsamples = 2\nvalue = [0, 0, 2]", fillcolor="#8139e5"] ;
723 -> 741 ;
742 [label="gini = 0.0\nsamples = 3\nvalue = [0, 0, 3]", fillcolor="#8139e5"] ;
722 -> 742 ;
743 [label=" C8 <= 0.0\ngini = 0.528\nsamples = 55\nvalue = [11, 9, 35]", fillcolor="#ba93f1"] ;
719 -> 743 ;
744 [label=" C2 <= -0.5\ngini = 0.642\nsamples = 18\nvalue = [4, 6, 8]", fillcolor="#eadefb"] ;
743 -> 744 ;
745 [label=" C11 <= 0.5\ngini = 0.571\nsamples = 7\nvalue = [2, 4, 1]", fillcolor="#b0f5cd"] ;
744 -> 745 ;
746 [label=" C13 <= 0.5\ngini = 0.625\nsamples = 4\nvalue = [2, 1, 1]", fillcolor="#f6d5bd"] ;
745 -> 746 ;
747 [label=" C3 <= 0.5\ngini = 0.444\nsamples = 3\nvalue = [2, 1, 0]", fillcolor="#f2c09c"] ;
746 -> 747 ;
748 [label="gini = 0.0\nsamples = 1\nvalue = [1, 0, 0]", fillcolor="#e58139"] ;
747 -> 748 ;
749 [label=" C25 <= 0.5\ngini = 0.5\nsamples = 2\nvalue = [1, 1, 0]", fillcolor="#ffffff"] ;
747 -> 749 ;
750 [label="gini = 0.0\nsamples = 1\nvalue = [1, 0, 0]", fillcolor="#e58139"] ;
749 -> 750 ;
751 [label="gini = 0.0\nsamples = 1\nvalue = [0, 1, 0]", fillcolor="#39e581"] ;
749 -> 751 ;
752 [label="gini = 0.0\nsamples = 1\nvalue = [0, 0, 1]", fillcolor="#8139e5"] ;
746 -> 752 ;
753 [label="gini = 0.0\nsamples = 3\nvalue = [0, 3, 0]", fillcolor="#39e581"] ;
745 -> 753 ;
754 [label=" C9 <= 0.0\ngini = 0.529\nsamples = 11\nvalue = [2, 2, 7]", fillcolor="#b991f1"] ;
744 -> 754 ;
755 [label="gini = 0.0\nsamples = 1\nvalue = [1, 0, 0]", fillcolor="#e58139"] ;
754 -> 755 ;
756 [label=" C13 <= 0.5\ngini = 0.46\nsamples = 10\nvalue = [1, 2, 7]", fillcolor="#b083ef"] ;
754 -> 756 ;
757 [label=" C11 <= 0.5\ngini = 0.245\nsamples = 7\nvalue = [0, 1, 6]", fillcolor="#965ae9"] ;
756 -> 757 ;
758 [label=" C26 <= 0.5\ngini = 0.5\nsamples = 2\nvalue = [0, 1, 1]", fillcolor="#ffffff"] ;
757 -> 758 ;
759 [label="gini = 0.0\nsamples = 1\nvalue = [0, 0, 1]", fillcolor="#8139e5"] ;
758 -> 759 ;
760 [label="gini = 0.0\nsamples = 1\nvalue = [0, 1, 0]", fillcolor="#39e581"] ;
758 -> 760 ;
761 [label="gini = 0.0\nsamples = 5\nvalue = [0, 0, 5]", fillcolor="#8139e5"] ;
757 -> 761 ;
762 [label=" C11 <= 0.0\ngini = 0.667\nsamples = 3\nvalue = [1, 1, 1]", fillcolor="#ffffff"] ;
756 -> 762 ;
763 [label="gini = 0.0\nsamples = 1\nvalue = [0, 0, 1]", fillcolor="#8139e5"] ;
762 -> 763 ;
764 [label=" C25 <= 0.5\ngini = 0.5\nsamples = 2\nvalue = [1, 1, 0]", fillcolor="#ffffff"] ;
762 -> 764 ;
765 [label="gini = 0.0\nsamples = 1\nvalue = [0, 1, 0]", fillcolor="#39e581"] ;
764 -> 765 ;
766 [label="gini = 0.0\nsamples = 1\nvalue = [1, 0, 0]", fillcolor="#e58139"] ;
764 -> 766 ;
767 [label=" C33 <= 0.5\ngini = 0.425\nsamples = 37\nvalue = [7, 3, 27]", fillcolor="#ab7bee"] ;
743 -> 767 ;
768 [label=" C13 <= -0.5\ngini = 0.403\nsamples = 36\nvalue = [6, 3, 27]", fillcolor="#a774ed"] ;
767 -> 768 ;
769 [label=" C2 <= -0.5\ngini = 0.494\nsamples = 9\nvalue = [4, 0, 5]", fillcolor="#e6d7fa"] ;
768 -> 769 ;
770 [label="gini = 0.0\nsamples = 3\nvalue = [3, 0, 0]", fillcolor="#e58139"] ;
769 -> 770 ;
771 [label=" C25 <= 0.5\ngini = 0.278\nsamples = 6\nvalue = [1, 0, 5]", fillcolor="#9a61ea"] ;
769 -> 771 ;
772 [label="gini = 0.0\nsamples = 4\nvalue = [0, 0, 4]", fillcolor="#8139e5"] ;
771 -> 772 ;
773 [label=" C11 <= 0.5\ngini = 0.5\nsamples = 2\nvalue = [1, 0, 1]", fillcolor="#ffffff"] ;
771 -> 773 ;
774 [label="gini = 0.0\nsamples = 1\nvalue = [1, 0, 0]", fillcolor="#e58139"] ;
773 -> 774 ;
775 [label="gini = 0.0\nsamples = 1\nvalue = [0, 0, 1]", fillcolor="#8139e5"] ;
773 -> 775 ;
776 [label=" C25 <= 0.5\ngini = 0.318\nsamples = 27\nvalue = [2, 3, 22]", fillcolor="#9b62ea"] ;
768 -> 776 ;
777 [label=" C31 <= -0.5\ngini = 0.5\nsamples = 12\nvalue = [2, 2, 8]", fillcolor="#b388ef"] ;
776 -> 777 ;
778 [label="gini = 0.0\nsamples = 1\nvalue = [1, 0, 0]", fillcolor="#e58139"] ;
777 -> 778 ;
779 [label=" C11 <= -0.5\ngini = 0.43\nsamples = 11\nvalue = [1, 2, 8]", fillcolor="#ab7bee"] ;
777 -> 779 ;
780 [label="gini = 0.0\nsamples = 1\nvalue = [1, 0, 0]", fillcolor="#e58139"] ;
779 -> 780 ;
781 [label=" C3 <= 0.5\ngini = 0.32\nsamples = 10\nvalue = [0, 2, 8]", fillcolor="#a06aec"] ;
779 -> 781 ;
782 [label="gini = 0.0\nsamples = 4\nvalue = [0, 0, 4]", fillcolor="#8139e5"] ;
781 -> 782 ;
783 [label=" C4 <= 0.5\ngini = 0.444\nsamples = 6\nvalue = [0, 2, 4]", fillcolor="#c09cf2"] ;
781 -> 783 ;
784 [label=" C13 <= 0.5\ngini = 0.5\nsamples = 4\nvalue = [0, 2, 2]", fillcolor="#ffffff"] ;
783 -> 784 ;
785 [label=" C7 <= 0.0\ngini = 0.5\nsamples = 2\nvalue = [0, 1, 1]", fillcolor="#ffffff"] ;
784 -> 785 ;
786 [label="gini = 0.0\nsamples = 1\nvalue = [0, 0, 1]", fillcolor="#8139e5"] ;
785 -> 786 ;
787 [label="gini = 0.0\nsamples = 1\nvalue = [0, 1, 0]", fillcolor="#39e581"] ;
785 -> 787 ;
788 [label=" C7 <= 0.0\ngini = 0.5\nsamples = 2\nvalue = [0, 1, 1]", fillcolor="#ffffff"] ;
784 -> 788 ;
789 [label="gini = 0.0\nsamples = 1\nvalue = [0, 1, 0]", fillcolor="#39e581"] ;
788 -> 789 ;
790 [label="gini = 0.0\nsamples = 1\nvalue = [0, 0, 1]", fillcolor="#8139e5"] ;
788 -> 790 ;
791 [label="gini = 0.0\nsamples = 2\nvalue = [0, 0, 2]", fillcolor="#8139e5"] ;
783 -> 791 ;
792 [label=" C26 <= 0.5\ngini = 0.124\nsamples = 15\nvalue = [0, 1, 14]", fillcolor="#8a47e7"] ;
776 -> 792 ;
793 [label="gini = 0.0\nsamples = 13\nvalue = [0, 0, 13]", fillcolor="#8139e5"] ;
792 -> 793 ;
794 [label=" C2 <= -0.5\ngini = 0.5\nsamples = 2\nvalue = [0, 1, 1]", fillcolor="#ffffff"] ;
792 -> 794 ;
795 [label="gini = 0.0\nsamples = 1\nvalue = [0, 0, 1]", fillcolor="#8139e5"] ;
794 -> 795 ;
796 [label="gini = 0.0\nsamples = 1\nvalue = [0, 1, 0]", fillcolor="#39e581"] ;
794 -> 796 ;
797 [label="gini = 0.0\nsamples = 1\nvalue = [1, 0, 0]", fillcolor="#e58139"] ;
767 -> 797 ;
798 [label=" C9 <= 0.5\ngini = 0.573\nsamples = 617\nvalue = [83, 348, 186]", fillcolor="#b5f5d0"] ;
716 -> 798 ;
799 [label=" C6 <= 0.5\ngini = 0.604\nsamples = 491\nvalue = [74, 248, 169]", fillcolor="#cef9e0"] ;
798 -> 799 ;
800 [label=" C8 <= -0.5\ngini = 0.597\nsamples = 461\nvalue = [71, 243, 147]", fillcolor="#c2f7d8"] ;
799 -> 800 ;
801 [label=" C27 <= 0.5\ngini = 0.516\nsamples = 51\nvalue = [3, 17, 31]", fillcolor="#cbadf4"] ;
800 -> 801 ;
802 [label=" C13 <= -0.5\ngini = 0.468\nsamples = 44\nvalue = [3, 11, 30]", fillcolor="#b68df0"] ;
801 -> 802 ;
803 [label=" C11 <= 0.5\ngini = 0.278\nsamples = 6\nvalue = [0, 5, 1]", fillcolor="#61ea9a"] ;
802 -> 803 ;
804 [label="gini = 0.0\nsamples = 5\nvalue = [0, 5, 0]", fillcolor="#39e581"] ;
803 -> 804 ;
805 [label="gini = 0.0\nsamples = 1\nvalue = [0, 0, 1]", fillcolor="#8139e5"] ;
803 -> 805 ;
806 [label=" C31 <= -0.5\ngini = 0.386\nsamples = 38\nvalue = [3, 6, 29]", fillcolor="#a471ec"] ;
802 -> 806 ;
807 [label="gini = 0.0\nsamples = 1\nvalue = [0, 1, 0]", fillcolor="#39e581"] ;
806 -> 807 ;
808 [label=" C13 <= 0.5\ngini = 0.361\nsamples = 37\nvalue = [3, 5, 29]", fillcolor="#a06aec"] ;
806 -> 808 ;
809 [label=" C28 <= 0.5\ngini = 0.49\nsamples = 21\nvalue = [2, 5, 14]", fillcolor="#b890f0"] ;
808 -> 809 ;
810 [label=" C5 <= -0.5\ngini = 0.445\nsamples = 20\nvalue = [1, 5, 14]", fillcolor="#b388ef"] ;
809 -> 810 ;
811 [label="gini = 0.0\nsamples = 1\nvalue = [0, 1, 0]", fillcolor="#39e581"] ;
810 -> 811 ;
812 [label=" C4 <= -0.5\ngini = 0.41\nsamples = 19\nvalue = [1, 4, 14]", fillcolor="#ab7bee"] ;
810 -> 812 ;
813 [label="gini = 0.0\nsamples = 1\nvalue = [0, 1, 0]", fillcolor="#39e581"] ;
812 -> 813 ;
814 [label=" C25 <= 0.5\ngini = 0.364\nsamples = 18\nvalue = [1, 3, 14]", fillcolor="#a36eec"] ;
812 -> 814 ;
815 [label=" C39 <= -0.5\ngini = 0.667\nsamples = 3\nvalue = [1, 1, 1]", fillcolor="#ffffff"] ;
814 -> 815 ;
816 [label="gini = 0.0\nsamples = 1\nvalue = [0, 0, 1]", fillcolor="#8139e5"] ;
815 -> 816 ;
817 [label=" C37 <= -0.5\ngini = 0.5\nsamples = 2\nvalue = [1, 1, 0]", fillcolor="#ffffff"] ;
815 -> 817 ;
818 [label="gini = 0.0\nsamples = 1\nvalue = [1, 0, 0]", fillcolor="#e58139"] ;
817 -> 818 ;
819 [label="gini = 0.0\nsamples = 1\nvalue = [0, 1, 0]", fillcolor="#39e581"] ;
817 -> 819 ;
820 [label=" C11 <= -0.5\ngini = 0.231\nsamples = 15\nvalue = [0, 2, 13]", fillcolor="#9457e9"] ;
814 -> 820 ;
821 [label=" C12 <= 0.5\ngini = 0.5\nsamples = 2\nvalue = [0, 1, 1]", fillcolor="#ffffff"] ;
820 -> 821 ;
822 [label="gini = 0.0\nsamples = 1\nvalue = [0, 1, 0]", fillcolor="#39e581"] ;
821 -> 822 ;
823 [label="gini = 0.0\nsamples = 1\nvalue = [0, 0, 1]", fillcolor="#8139e5"] ;
821 -> 823 ;
824 [label=" C3 <= -0.5\ngini = 0.142\nsamples = 13\nvalue = [0, 1, 12]", fillcolor="#8c49e7"] ;
820 -> 824 ;
825 [label=" C26 <= 0.5\ngini = 0.5\nsamples = 2\nvalue = [0, 1, 1]", fillcolor="#ffffff"] ;
824 -> 825 ;
826 [label="gini = 0.0\nsamples = 1\nvalue = [0, 0, 1]", fillcolor="#8139e5"] ;
825 -> 826 ;
827 [label="gini = 0.0\nsamples = 1\nvalue = [0, 1, 0]", fillcolor="#39e581"] ;
825 -> 827 ;
828 [label="gini = 0.0\nsamples = 11\nvalue = [0, 0, 11]", fillcolor="#8139e5"] ;
824 -> 828 ;
829 [label="gini = 0.0\nsamples = 1\nvalue = [1, 0, 0]", fillcolor="#e58139"] ;
809 -> 829 ;
830 [label=" C37 <= -0.5\ngini = 0.117\nsamples = 16\nvalue = [1, 0, 15]", fillcolor="#8946e7"] ;
808 -> 830 ;
831 [label=" C4 <= 0.5\ngini = 0.375\nsamples = 4\nvalue = [1, 0, 3]", fillcolor="#ab7bee"] ;
830 -> 831 ;
832 [label="gini = 0.0\nsamples = 3\nvalue = [0, 0, 3]", fillcolor="#8139e5"] ;
831 -> 832 ;
833 [label="gini = 0.0\nsamples = 1\nvalue = [1, 0, 0]", fillcolor="#e58139"] ;
831 -> 833 ;
834 [label="gini = 0.0\nsamples = 12\nvalue = [0, 0, 12]", fillcolor="#8139e5"] ;
830 -> 834 ;
835 [label=" C28 <= -0.5\ngini = 0.245\nsamples = 7\nvalue = [0, 6, 1]", fillcolor="#5ae996"] ;
801 -> 835 ;
836 [label="gini = 0.0\nsamples = 1\nvalue = [0, 0, 1]", fillcolor="#8139e5"] ;
835 -> 836 ;
837 [label="gini = 0.0\nsamples = 6\nvalue = [0, 6, 0]", fillcolor="#39e581"] ;
835 -> 837 ;
838 [label=" C41 <= 0.5\ngini = 0.589\nsamples = 410\nvalue = [68, 226, 116]", fillcolor="#b5f5d0"] ;
800 -> 838 ;
839 [label=" C27 <= -0.5\ngini = 0.583\nsamples = 402\nvalue = [67, 226, 109]", fillcolor="#b0f5cd"] ;
838 -> 839 ;
840 [label=" C26 <= 0.0\ngini = 0.584\nsamples = 56\nvalue = [6, 22, 28]", fillcolor="#e9dcfa"] ;
839 -> 840 ;
841 [label=" C9 <= -0.5\ngini = 0.298\nsamples = 11\nvalue = [2, 0, 9]", fillcolor="#9d65eb"] ;
840 -> 841 ;
842 [label="gini = 0.0\nsamples = 2\nvalue = [2, 0, 0]", fillcolor="#e58139"] ;
841 -> 842 ;
843 [label="gini = 0.0\nsamples = 9\nvalue = [0, 0, 9]", fillcolor="#8139e5"] ;
841 -> 843 ;
844 [label=" C7 <= 0.5\ngini = 0.575\nsamples = 45\nvalue = [4, 22, 19]", fillcolor="#e8fcf0"] ;
840 -> 844 ;
845 [label=" C29 <= -0.5\ngini = 0.591\nsamples = 31\nvalue = [4, 11, 16]", fillcolor="#e0cef8"] ;
844 -> 845 ;
846 [label="gini = 0.0\nsamples = 4\nvalue = [0, 4, 0]", fillcolor="#39e581"] ;
845 -> 846 ;
847 [label=" C13 <= -0.5\ngini = 0.56\nsamples = 27\nvalue = [4, 7, 16]", fillcolor="#c6a6f3"] ;
845 -> 847 ;
848 [label="gini = 0.0\nsamples = 5\nvalue = [0, 0, 5]", fillcolor="#8139e5"] ;
847 -> 848 ;
849 [label=" C28 <= 0.5\ngini = 0.616\nsamples = 22\nvalue = [4, 7, 11]", fillcolor="#ddcaf8"] ;
847 -> 849 ;
850 [label=" C37 <= -0.5\ngini = 0.52\nsamples = 14\nvalue = [3, 2, 9]", fillcolor="#ba93f1"] ;
849 -> 850 ;
851 [label=" C2 <= -0.5\ngini = 0.625\nsamples = 4\nvalue = [2, 1, 1]", fillcolor="#f6d5bd"] ;
850 -> 851 ;
852 [label="gini = 0.0\nsamples = 1\nvalue = [0, 1, 0]", fillcolor="#39e581"] ;
851 -> 852 ;
853 [label=" C13 <= 0.5\ngini = 0.444\nsamples = 3\nvalue = [2, 0, 1]", fillcolor="#f2c09c"] ;
851 -> 853 ;
854 [label="gini = 0.0\nsamples = 1\nvalue = [0, 0, 1]", fillcolor="#8139e5"] ;
853 -> 854 ;
855 [label="gini = 0.0\nsamples = 2\nvalue = [2, 0, 0]", fillcolor="#e58139"] ;
853 -> 855 ;
856 [label=" C10 <= 0.5\ngini = 0.34\nsamples = 10\nvalue = [1, 1, 8]", fillcolor="#9d65eb"] ;
850 -> 856 ;
857 [label=" C4 <= -0.5\ngini = 0.198\nsamples = 9\nvalue = [0, 1, 8]", fillcolor="#9152e8"] ;
856 -> 857 ;
858 [label=" C5 <= 0.5\ngini = 0.5\nsamples = 2\nvalue = [0, 1, 1]", fillcolor="#ffffff"] ;
857 -> 858 ;
859 [label="gini = 0.0\nsamples = 1\nvalue = [0, 1, 0]", fillcolor="#39e581"] ;
858 -> 859 ;
860 [label="gini = 0.0\nsamples = 1\nvalue = [0, 0, 1]", fillcolor="#8139e5"] ;
858 -> 860 ;
861 [label="gini = 0.0\nsamples = 7\nvalue = [0, 0, 7]", fillcolor="#8139e5"] ;
857 -> 861 ;
862 [label="gini = 0.0\nsamples = 1\nvalue = [1, 0, 0]", fillcolor="#e58139"] ;
856 -> 862 ;
863 [label=" C38 <= 0.5\ngini = 0.531\nsamples = 8\nvalue = [1, 5, 2]", fillcolor="#9cf2c0"] ;
849 -> 863 ;
864 [label=" C37 <= -0.5\ngini = 0.449\nsamples = 7\nvalue = [1, 5, 1]", fillcolor="#7beeab"] ;
863 -> 864 ;
865 [label=" C13 <= 0.5\ngini = 0.5\nsamples = 2\nvalue = [1, 1, 0]", fillcolor="#ffffff"] ;
864 -> 865 ;
866 [label="gini = 0.0\nsamples = 1\nvalue = [1, 0, 0]", fillcolor="#e58139"] ;
865 -> 866 ;
867 [label="gini = 0.0\nsamples = 1\nvalue = [0, 1, 0]", fillcolor="#39e581"] ;
865 -> 867 ;
868 [label=" C3 <= 0.5\ngini = 0.32\nsamples = 5\nvalue = [0, 4, 1]", fillcolor="#6aeca0"] ;
864 -> 868 ;
869 [label="gini = 0.0\nsamples = 3\nvalue = [0, 3, 0]", fillcolor="#39e581"] ;
868 -> 869 ;
870 [label=" C4 <= -0.5\ngini = 0.5\nsamples = 2\nvalue = [0, 1, 1]", fillcolor="#ffffff"] ;
868 -> 870 ;
871 [label="gini = 0.0\nsamples = 1\nvalue = [0, 1, 0]", fillcolor="#39e581"] ;
870 -> 871 ;
872 [label="gini = 0.0\nsamples = 1\nvalue = [0, 0, 1]", fillcolor="#8139e5"] ;
870 -> 872 ;
873 [label="gini = 0.0\nsamples = 1\nvalue = [0, 0, 1]", fillcolor="#8139e5"] ;
863 -> 873 ;
874 [label=" C32 <= 0.5\ngini = 0.337\nsamples = 14\nvalue = [0, 11, 3]", fillcolor="#6feca3"] ;
844 -> 874 ;
875 [label=" C3 <= 0.5\ngini = 0.26\nsamples = 13\nvalue = [0, 11, 2]", fillcolor="#5dea98"] ;
874 -> 875 ;
876 [label=" C28 <= -0.5\ngini = 0.165\nsamples = 11\nvalue = [0, 10, 1]", fillcolor="#4de88e"] ;
875 -> 876 ;
877 [label=" C2 <= -0.5\ngini = 0.5\nsamples = 2\nvalue = [0, 1, 1]", fillcolor="#ffffff"] ;
876 -> 877 ;
878 [label="gini = 0.0\nsamples = 1\nvalue = [0, 1, 0]", fillcolor="#39e581"] ;
877 -> 878 ;
879 [label="gini = 0.0\nsamples = 1\nvalue = [0, 0, 1]", fillcolor="#8139e5"] ;
877 -> 879 ;
880 [label="gini = 0.0\nsamples = 9\nvalue = [0, 9, 0]", fillcolor="#39e581"] ;
876 -> 880 ;
881 [label=" C13 <= -0.5\ngini = 0.5\nsamples = 2\nvalue = [0, 1, 1]", fillcolor="#ffffff"] ;
875 -> 881 ;
882 [label="gini = 0.0\nsamples = 1\nvalue = [0, 0, 1]", fillcolor="#8139e5"] ;
881 -> 882 ;
883 [label="gini = 0.0\nsamples = 1\nvalue = [0, 1, 0]", fillcolor="#39e581"] ;
881 -> 883 ;
884 [label="gini = 0.0\nsamples = 1\nvalue = [0, 0, 1]", fillcolor="#8139e5"] ;
874 -> 884 ;
885 [label=" C5 <= 0.5\ngini = 0.566\nsamples = 346\nvalue = [61, 204, 81]", fillcolor="#a3f3c5"] ;
839 -> 885 ;
886 [label=" C28 <= -0.5\ngini = 0.542\nsamples = 313\nvalue = [51, 194, 68]", fillcolor="#99f2be"] ;
885 -> 886 ;
887 [label=" C7 <= 0.5\ngini = 0.585\nsamples = 20\nvalue = [3, 6, 11]", fillcolor="#d2b8f6"] ;
886 -> 887 ;
888 [label=" C4 <= 0.5\ngini = 0.379\nsamples = 13\nvalue = [2, 1, 10]", fillcolor="#a36fec"] ;
887 -> 888 ;
889 [label=" C26 <= 0.0\ngini = 0.165\nsamples = 11\nvalue = [0, 1, 10]", fillcolor="#8e4de8"] ;
888 -> 889 ;
890 [label=" C3 <= 0.5\ngini = 0.444\nsamples = 3\nvalue = [0, 1, 2]", fillcolor="#c09cf2"] ;
889 -> 890 ;
891 [label="gini = 0.0\nsamples = 2\nvalue = [0, 0, 2]", fillcolor="#8139e5"] ;
890 -> 891 ;
892 [label="gini = 0.0\nsamples = 1\nvalue = [0, 1, 0]", fillcolor="#39e581"] ;
890 -> 892 ;
893 [label="gini = 0.0\nsamples = 8\nvalue = [0, 0, 8]", fillcolor="#8139e5"] ;
889 -> 893 ;
894 [label="gini = 0.0\nsamples = 2\nvalue = [2, 0, 0]", fillcolor="#e58139"] ;
888 -> 894 ;
895 [label=" C30 <= 0.5\ngini = 0.449\nsamples = 7\nvalue = [1, 5, 1]", fillcolor="#7beeab"] ;
887 -> 895 ;
896 [label=" C2 <= -0.5\ngini = 0.278\nsamples = 6\nvalue = [1, 5, 0]", fillcolor="#61ea9a"] ;
895 -> 896 ;
897 [label=" C3 <= 0.5\ngini = 0.5\nsamples = 2\nvalue = [1, 1, 0]", fillcolor="#ffffff"] ;
896 -> 897 ;
898 [label="gini = 0.0\nsamples = 1\nvalue = [1, 0, 0]", fillcolor="#e58139"] ;
897 -> 898 ;
899 [label="gini = 0.0\nsamples = 1\nvalue = [0, 1, 0]", fillcolor="#39e581"] ;
897 -> 899 ;
900 [label="gini = 0.0\nsamples = 4\nvalue = [0, 4, 0]", fillcolor="#39e581"] ;
896 -> 900 ;
901 [label="gini = 0.0\nsamples = 1\nvalue = [0, 0, 1]", fillcolor="#8139e5"] ;
895 -> 901 ;
902 [label=" C26 <= 0.5\ngini = 0.524\nsamples = 293\nvalue = [48, 188, 57]", fillcolor="#91f1b9"] ;
886 -> 902 ;
903 [label=" C27 <= 0.5\ngini = 0.565\nsamples = 241\nvalue = [47, 143, 51]", fillcolor="#9ff2c2"] ;
902 -> 903 ;
904 [label=" C26 <= -0.5\ngini = 0.603\nsamples = 197\nvalue = [43, 106, 48]", fillcolor="#b2f5ce"] ;
903 -> 904 ;
905 [label=" C13 <= 0.5\ngini = 0.498\nsamples = 15\nvalue = [2, 3, 10]", fillcolor="#b68cf0"] ;
904 -> 905 ;
906 [label=" C3 <= -0.5\ngini = 0.32\nsamples = 10\nvalue = [2, 0, 8]", fillcolor="#a06aec"] ;
905 -> 906 ;
907 [label="gini = 0.0\nsamples = 1\nvalue = [1, 0, 0]", fillcolor="#e58139"] ;
906 -> 907 ;
908 [label=" C10 <= 0.5\ngini = 0.198\nsamples = 9\nvalue = [1, 0, 8]", fillcolor="#9152e8"] ;
906 -> 908 ;
909 [label="gini = 0.0\nsamples = 7\nvalue = [0, 0, 7]", fillcolor="#8139e5"] ;
908 -> 909 ;
910 [label=" C7 <= 0.0\ngini = 0.5\nsamples = 2\nvalue = [1, 0, 1]", fillcolor="#ffffff"] ;
908 -> 910 ;
911 [label="gini = 0.0\nsamples = 1\nvalue = [0, 0, 1]", fillcolor="#8139e5"] ;
910 -> 911 ;
912 [label="gini = 0.0\nsamples = 1\nvalue = [1, 0, 0]", fillcolor="#e58139"] ;
910 -> 912 ;
913 [label=" C7 <= -0.5\ngini = 0.48\nsamples = 5\nvalue = [0, 3, 2]", fillcolor="#bdf6d5"] ;
905 -> 913 ;
914 [label=" C10 <= 0.5\ngini = 0.444\nsamples = 3\nvalue = [0, 1, 2]", fillcolor="#c09cf2"] ;
913 -> 914 ;
915 [label="gini = 0.0\nsamples = 2\nvalue = [0, 0, 2]", fillcolor="#8139e5"] ;
914 -> 915 ;
916 [label="gini = 0.0\nsamples = 1\nvalue = [0, 1, 0]", fillcolor="#39e581"] ;
914 -> 916 ;
917 [label="gini = 0.0\nsamples = 2\nvalue = [0, 2, 0]", fillcolor="#39e581"] ;
913 -> 917 ;
918 [label=" C12 <= 0.5\ngini = 0.585\nsamples = 182\nvalue = [41, 103, 38]", fillcolor="#a8f4c8"] ;
904 -> 918 ;
919 [label=" C8 <= 0.5\ngini = 0.569\nsamples = 175\nvalue = [37, 103, 35]", fillcolor="#a0f3c3"] ;
918 -> 919 ;
920 [label=" C5 <= -0.5\ngini = 0.648\nsamples = 59\nvalue = [15, 26, 18]", fillcolor="#d8fae6"] ;
919 -> 920 ;
921 [label=" C13 <= 0.5\ngini = 0.426\nsamples = 13\nvalue = [4, 9, 0]", fillcolor="#91f1b9"] ;
920 -> 921 ;
922 [label="gini = 0.0\nsamples = 6\nvalue = [0, 6, 0]", fillcolor="#39e581"] ;
921 -> 922 ;
923 [label=" C32 <= 0.5\ngini = 0.49\nsamples = 7\nvalue = [4, 3, 0]", fillcolor="#f8e0ce"] ;
921 -> 923 ;
924 [label=" C7 <= -0.5\ngini = 0.444\nsamples = 6\nvalue = [4, 2, 0]", fillcolor="#f2c09c"] ;
923 -> 924 ;
925 [label="gini = 0.0\nsamples = 1\nvalue = [0, 1, 0]", fillcolor="#39e581"] ;
924 -> 925 ;
926 [label=" C37 <= -0.5\ngini = 0.32\nsamples = 5\nvalue = [4, 1, 0]", fillcolor="#eca06a"] ;
924 -> 926 ;
927 [label=" C7 <= 0.5\ngini = 0.5\nsamples = 2\nvalue = [1, 1, 0]", fillcolor="#ffffff"] ;
926 -> 927 ;
928 [label="gini = 0.0\nsamples = 1\nvalue = [1, 0, 0]", fillcolor="#e58139"] ;
927 -> 928 ;
929 [label="gini = 0.0\nsamples = 1\nvalue = [0, 1, 0]", fillcolor="#39e581"] ;
927 -> 929 ;
930 [label="gini = 0.0\nsamples = 3\nvalue = [3, 0, 0]", fillcolor="#e58139"] ;
926 -> 930 ;
931 [label="gini = 0.0\nsamples = 1\nvalue = [0, 1, 0]", fillcolor="#39e581"] ;
923 -> 931 ;
932 [label=" C33 <= 0.5\ngini = 0.653\nsamples = 46\nvalue = [11, 17, 18]", fillcolor="#fbf8fe"] ;
920 -> 932 ;
933 [label=" C7 <= 0.5\ngini = 0.624\nsamples = 31\nvalue = [10, 6, 15]", fillcolor="#e1d0f9"] ;
932 -> 933 ;
934 [label=" C4 <= -0.5\ngini = 0.551\nsamples = 15\nvalue = [2, 4, 9]", fillcolor="#c6a5f3"] ;
933 -> 934 ;
935 [label="gini = 0.0\nsamples = 1\nvalue = [1, 0, 0]", fillcolor="#e58139"] ;
934 -> 935 ;
936 [label=" C3 <= 0.5\ngini = 0.5\nsamples = 14\nvalue = [1, 4, 9]", fillcolor="#c09cf2"] ;
934 -> 936 ;
937 [label=" C7 <= -0.5\ngini = 0.48\nsamples = 5\nvalue = [0, 3, 2]", fillcolor="#bdf6d5"] ;
936 -> 937 ;
938 [label="gini = 0.0\nsamples = 2\nvalue = [0, 2, 0]", fillcolor="#39e581"] ;
937 -> 938 ;
939 [label=" C2 <= -0.5\ngini = 0.444\nsamples = 3\nvalue = [0, 1, 2]", fillcolor="#c09cf2"] ;
937 -> 939 ;
940 [label="gini = 0.0\nsamples = 1\nvalue = [0, 1, 0]", fillcolor="#39e581"] ;
939 -> 940 ;
941 [label="gini = 0.0\nsamples = 2\nvalue = [0, 0, 2]", fillcolor="#8139e5"] ;
939 -> 941 ;
942 [label=" C38 <= -0.5\ngini = 0.37\nsamples = 9\nvalue = [1, 1, 7]", fillcolor="#a06aec"] ;
936 -> 942 ;
943 [label="gini = 0.0\nsamples = 1\nvalue = [0, 1, 0]", fillcolor="#39e581"] ;
942 -> 943 ;
944 [label=" C25 <= 0.5\ngini = 0.219\nsamples = 8\nvalue = [1, 0, 7]", fillcolor="#9355e9"] ;
942 -> 944 ;
945 [label=" C7 <= -0.5\ngini = 0.375\nsamples = 4\nvalue = [1, 0, 3]", fillcolor="#ab7bee"] ;
944 -> 945 ;
946 [label="gini = 0.0\nsamples = 1\nvalue = [1, 0, 0]", fillcolor="#e58139"] ;
945 -> 946 ;
947 [label="gini = 0.0\nsamples = 3\nvalue = [0, 0, 3]", fillcolor="#8139e5"] ;
945 -> 947 ;
948 [label="gini = 0.0\nsamples = 4\nvalue = [0, 0, 4]", fillcolor="#8139e5"] ;
944 -> 948 ;
949 [label=" C39 <= -0.5\ngini = 0.594\nsamples = 16\nvalue = [8, 2, 6]", fillcolor="#fae6d7"] ;
933 -> 949 ;
950 [label=" C13 <= 0.5\ngini = 0.64\nsamples = 5\nvalue = [1, 2, 2]", fillcolor="#ffffff"] ;
949 -> 950 ;
951 [label=" C42 <= 0.5\ngini = 0.444\nsamples = 3\nvalue = [1, 2, 0]", fillcolor="#9cf2c0"] ;
950 -> 951 ;
952 [label="gini = 0.0\nsamples = 2\nvalue = [0, 2, 0]", fillcolor="#39e581"] ;
951 -> 952 ;
953 [label="gini = 0.0\nsamples = 1\nvalue = [1, 0, 0]", fillcolor="#e58139"] ;
951 -> 953 ;
954 [label="gini = 0.0\nsamples = 2\nvalue = [0, 0, 2]", fillcolor="#8139e5"] ;
950 -> 954 ;
955 [label=" C31 <= -0.5\ngini = 0.463\nsamples = 11\nvalue = [7, 0, 4]", fillcolor="#f4c9aa"] ;
949 -> 955 ;
956 [label=" C32 <= 0.5\ngini = 0.48\nsamples = 5\nvalue = [2, 0, 3]", fillcolor="#d5bdf6"] ;
955 -> 956 ;
957 [label="gini = 0.0\nsamples = 2\nvalue = [0, 0, 2]", fillcolor="#8139e5"] ;
956 -> 957 ;
958 [label=" C34 <= 0.5\ngini = 0.444\nsamples = 3\nvalue = [2, 0, 1]", fillcolor="#f2c09c"] ;
956 -> 958 ;
959 [label="gini = 0.0\nsamples = 2\nvalue = [2, 0, 0]", fillcolor="#e58139"] ;
958 -> 959 ;
960 [label="gini = 0.0\nsamples = 1\nvalue = [0, 0, 1]", fillcolor="#8139e5"] ;
958 -> 960 ;
961 [label=" C25 <= -0.5\ngini = 0.278\nsamples = 6\nvalue = [5, 0, 1]", fillcolor="#ea9a61"] ;
955 -> 961 ;
962 [label="gini = 0.0\nsamples = 1\nvalue = [0, 0, 1]", fillcolor="#8139e5"] ;
961 -> 962 ;
963 [label="gini = 0.0\nsamples = 5\nvalue = [5, 0, 0]", fillcolor="#e58139"] ;
961 -> 963 ;
964 [label=" C35 <= 0.5\ngini = 0.418\nsamples = 15\nvalue = [1, 11, 3]", fillcolor="#7beeab"] ;
932 -> 964 ;
965 [label=" C25 <= 0.5\ngini = 0.292\nsamples = 12\nvalue = [1, 10, 1]", fillcolor="#5dea98"] ;
964 -> 965 ;
966 [label=" C2 <= -0.5\ngini = 0.56\nsamples = 5\nvalue = [1, 3, 1]", fillcolor="#9cf2c0"] ;
965 -> 966 ;
967 [label=" C13 <= -0.5\ngini = 0.375\nsamples = 4\nvalue = [0, 3, 1]", fillcolor="#7beeab"] ;
966 -> 967 ;
968 [label="gini = 0.0\nsamples = 1\nvalue = [0, 0, 1]", fillcolor="#8139e5"] ;
967 -> 968 ;
969 [label="gini = 0.0\nsamples = 3\nvalue = [0, 3, 0]", fillcolor="#39e581"] ;
967 -> 969 ;
970 [label="gini = 0.0\nsamples = 1\nvalue = [1, 0, 0]", fillcolor="#e58139"] ;
966 -> 970 ;
971 [label="gini = 0.0\nsamples = 7\nvalue = [0, 7, 0]", fillcolor="#39e581"] ;
965 -> 971 ;
972 [label=" C7 <= -0.5\ngini = 0.444\nsamples = 3\nvalue = [0, 1, 2]", fillcolor="#c09cf2"] ;
964 -> 972 ;
973 [label="gini = 0.0\nsamples = 1\nvalue = [0, 1, 0]", fillcolor="#39e581"] ;
972 -> 973 ;
974 [label="gini = 0.0\nsamples = 2\nvalue = [0, 0, 2]", fillcolor="#8139e5"] ;
972 -> 974 ;
975 [label=" C2 <= -0.5\ngini = 0.502\nsamples = 116\nvalue = [22, 77, 17]", fillcolor="#8bf0b5"] ;
919 -> 975 ;
976 [label=" C9 <= -0.5\ngini = 0.567\nsamples = 62\nvalue = [17, 36, 9]", fillcolor="#abf4ca"] ;
975 -> 976 ;
977 [label=" C10 <= 0.5\ngini = 0.647\nsamples = 27\nvalue = [8, 12, 7]", fillcolor="#d5fae4"] ;
976 -> 977 ;
978 [label=" C13 <= 0.5\ngini = 0.569\nsamples = 12\nvalue = [3, 2, 7]", fillcolor="#c7a7f3"] ;
977 -> 978 ;
979 [label=" C25 <= 0.5\ngini = 0.611\nsamples = 6\nvalue = [3, 2, 1]", fillcolor="#f8e0ce"] ;
978 -> 979 ;
980 [label=" C13 <= -0.5\ngini = 0.444\nsamples = 3\nvalue = [0, 2, 1]", fillcolor="#9cf2c0"] ;
979 -> 980 ;
981 [label="gini = 0.0\nsamples = 1\nvalue = [0, 0, 1]", fillcolor="#8139e5"] ;
980 -> 981 ;
982 [label="gini = 0.0\nsamples = 2\nvalue = [0, 2, 0]", fillcolor="#39e581"] ;
980 -> 982 ;
983 [label="gini = 0.0\nsamples = 3\nvalue = [3, 0, 0]", fillcolor="#e58139"] ;
979 -> 983 ;
984 [label="gini = 0.0\nsamples = 6\nvalue = [0, 0, 6]", fillcolor="#8139e5"] ;
978 -> 984 ;
985 [label=" C38 <= 0.5\ngini = 0.444\nsamples = 15\nvalue = [5, 10, 0]", fillcolor="#9cf2c0"] ;
977 -> 985 ;
986 [label=" C3 <= 0.5\ngini = 0.408\nsamples = 14\nvalue = [4, 10, 0]", fillcolor="#88efb3"] ;
985 -> 986 ;
987 [label=" C25 <= 0.5\ngini = 0.49\nsamples = 7\nvalue = [3, 4, 0]", fillcolor="#cef8e0"] ;
986 -> 987 ;
